{"sample_num": 19, "weight": {"linear.weight": [[-0.00026738643646240234, 0.019158700481057167, -0.029394470155239105, -0.026283537968993187, -0.013755513355135918, 0.009577048942446709, -0.0007076135952956975, 0.028317483142018318, -0.003169430186972022, 0.009450448676943779, -0.010793324559926987, -0.007020192686468363, -0.03411396965384483, -0.02364560030400753, -0.014717054553329945, 0.0013280425919219851, 0.014119114726781845, 0.021429385989904404, -0.0242121834307909, -0.015552245080471039, 0.012972040101885796, 0.02965671382844448, -0.007350006606429815, 0.026725420728325844, -0.00575654860585928, 0.0037790751084685326, 0.03233843669295311, -0.033131085336208344, -0.022483499720692635, -0.009041616693139076, -0.01392142754048109, 0.03085717186331749, -0.023144152015447617, -0.01643255166709423, -0.024939658120274544, -0.03343295305967331, -0.020827703177928925, 0.030726371333003044, 0.01597006805241108, 0.017351284623146057, 0.0019222949631512165, -0.018265722319483757, 0.006087827496230602, -0.033303722739219666, -0.02576424367725849, -0.018373984843492508, 0.022565077990293503, 0.020965568721294403, -0.01581691764295101, -0.0012746406719088554, 0.022852061316370964, 0.035510335117578506, 0.014174364507198334, 0.004824745003134012, 0.023945940658450127, -0.021028656512498856, 0.006655144039541483, -0.027689483016729355, -0.02474789135158062, -0.018442591652274132, 0.016170606017112732, 0.014377640560269356, -0.021130157634615898, 0.010828121565282345, 0.019658008590340614, -0.004434637259691954, 0.0014589739730581641, 0.00839452724903822, 0.022297978401184082, 0.03445539250969887, -0.02734232135117054, -0.012896881438791752, 0.014226747676730156, 0.029770387336611748, 0.031241703778505325, 0.031650327146053314, 0.007214655168354511, -0.030979588627815247, 0.003338721115142107, -0.022310754284262657, -0.03326607868075371, 0.031741850078105927, 0.02715570665895939, -0.03562600165605545, 0.006684716325253248, -0.0060164290480315685, -0.005870350170880556, -0.016337167471647263, 0.013752696104347706, -0.02112310752272606, 0.012895075604319572, 0.017322538420557976, 0.02431618422269821, 0.012527707032859325, -0.03590232506394386, -0.02319496124982834, 0.017923628911376, 0.007788081653416157, -0.02751638926565647, -0.02020449936389923, 0.03395713493227959, 0.024402402341365814, -0.015489937737584114, -0.009183907881379128, -0.033922743052244186, -0.0004951943992637098, -0.026789791882038116, -0.027482949197292328, -0.0019268470350652933, 0.005383509676903486, -0.014617822133004665, 0.02119205705821514, -0.021733541041612625, 0.03241124749183655, 0.02448488213121891, -0.03009689599275589, -0.00885553564876318, 0.0016786630731076002, 0.005034164525568485, 0.007665831129997969, 0.013560778461396694, 0.0016747465124353766, -0.017742792144417763, 0.016726035624742508, -0.03434675931930542, -0.02121206559240818, -0.00882570818066597, -0.01724441908299923, -0.012312243692576885, -0.029107412323355675, -0.007580163422971964, 0.007541284896433353, -0.023119216784834862, -0.0018143561901524663, 0.025498781353235245, -0.0042009600438177586, -0.0005500486586242914, -0.00550459697842598, 0.007249153684824705, 0.022715890780091286, 0.033830221742391586, 0.022685717791318893, 0.03392310068011284, -0.0025527370162308216, -0.03201047331094742, -0.01680629327893257, 0.024310791864991188, -0.0009628822444938123, -0.018593402579426765, -0.02807532623410225, -0.033865541219711304, -0.030712157487869263, -0.007662244141101837, 0.0192581657320261, 0.019276203587651253, -0.03445671126246452, 0.02217170223593712, -0.028133274987339973, -0.00790404062718153, -0.014885488897562027, -0.007448392920196056, -0.008027227595448494, -0.033513959497213364, -0.03197675198316574, -0.006177389994263649, -0.0003878544666804373, -0.01617865264415741, 0.013463993556797504, -0.032144945114851, -0.0024033805821090937, 0.03142822906374931, -0.014516916126012802, 0.032360732555389404, 0.013117595575749874, -0.03202250227332115, 0.022362587973475456, -0.004495535511523485, -0.01619056984782219, 0.02812407724559307, -0.029164651408791542, 0.0035960401874035597, -0.007548517547547817, 0.025454921647906303, 0.010033022612333298, 0.017226893454790115, 0.012446851469576359, -0.008806425146758556, -0.007698825094848871, -0.03010282665491104, 0.018075130879878998, 0.02723444253206253, 0.02367984689772129, -0.025030378252267838, 0.0017353377770632505, -0.02510981447994709, -0.019639115780591965, -0.020805733278393745, 0.01222311332821846, -0.021245969459414482, -0.002025818917900324, 0.0009989220416173339, 0.022796664386987686, -0.027183789759874344, -0.024729803204536438, -0.02123122289776802, 0.024688614532351494, -0.013266734778881073, 0.029766298830509186, 0.012703957967460155, 0.004427035804837942, -0.0002583051973488182, -0.006896689534187317, 0.0047520240768790245, -0.008188560605049133, -0.00023126429005060345, 0.004447216168045998, -0.0287141352891922, -0.0201745443046093, 0.028027929365634918, -0.028923779726028442, -0.0022944833617657423, 0.03549674153327942, 0.012979286722838879, 0.001032213680446148, -0.03094395622611046, 0.01771661266684532, -0.025379126891493797, -0.01054970733821392, -0.012753771618008614, -0.0058673410676419735, -0.00011376473412383348, 0.029221031814813614, 0.004267353564500809, 0.031890396028757095, 0.021909862756729126, -0.022518930956721306, 0.01627426967024803, -0.02495264820754528, -0.014789998531341553, 0.010770715773105621, 0.012162011116743088, 0.0268850214779377, -0.011677904985845089, -0.00014265380741562694, 0.017541391775012016, -0.03560465946793556, 0.025365537032485008, -0.02927483059465885, 0.000764047319535166, -0.005905254743993282, -0.01873275451362133, 0.004739502910524607, 0.029542332515120506, -0.01040902454406023, -0.021131349727511406, -0.013987415470182896, -0.036453332751989365, 0.015569671988487244, -0.01752742938697338, -0.023868883028626442, -0.02044595032930374, 0.020813845098018646, 0.019471261650323868, 0.02802281267940998, 0.013450928032398224, -0.011291081085801125, -0.009417236782610416, 0.01097128540277481, 0.02971966192126274, 0.009562801569700241, -0.01730462908744812, -0.017256272956728935, -0.03461411967873573, 0.007132303901016712, -0.020135022699832916, -0.031445372849702835, 0.0315670371055603, -0.02304823324084282, -0.003995922394096851, 0.010252425447106361, 0.0011474922066554427, -0.023999979719519615, -0.028796426951885223, 0.027370264753699303, 0.0052347127348184586, 0.02944869175553322, -0.011817216873168945, 0.010967308655381203, -0.007470013573765755, -0.0008418058860115707, -0.02078361250460148, 0.012722562067210674, 0.011644572950899601, -0.0004776152200065553, -0.007819192484021187, -0.021934226155281067, 0.02449575997889042, -0.027334753423929214, 0.014156979508697987, -0.012549599632620811, -0.017728252336382866, 0.006486142985522747, -0.018145769834518433, 0.008600671775639057, 0.0072345067746937275, -0.026405800133943558, 0.005999122746288776, 0.015229846350848675, 0.014146601781249046, -0.004467465914785862, -0.029214175418019295, -0.006818386260420084, 0.011777997948229313, -0.013018914498388767, 0.01402144506573677, 0.02445118874311447, -0.017747504636645317, 0.0012116674333810806, 0.015148350968956947, 0.002729186089709401, 0.002752121537923813, 0.004300910048186779, -0.028384122997522354, 0.0023103037383407354, 0.02392195723950863, 0.03151116520166397, 0.02061712183058262, 0.004568833392113447, 0.017046822234988213, -0.016892852261662483, -0.029088318347930908, -0.030356675386428833, 0.03583667054772377, 0.022756021469831467, -0.02464720420539379, 0.013986137695610523, 0.02697702683508396, 0.03572257608175278, 0.031277839094400406, 0.027513103559613228, -0.008131807669997215, -0.012223455123603344, 0.02980889193713665, 0.02071591280400753, -0.020585639402270317, 0.03232356160879135, 0.017003340646624565, 0.019259532913565636, -0.02270139567553997, 0.009436387568712234, -0.013192526996135712, 0.02723413147032261, -0.007158440072089434, 0.013403980061411858, 0.006544033065438271, 0.015643758699297905, -0.01137846615165472, 0.018056586384773254, -0.02445615455508232, 0.008418338373303413, -0.023951347917318344, -0.03515920415520668, -0.02865137718617916, 0.02820800058543682, 0.019327865913510323, 0.03352291136980057, 0.0286465622484684, -0.03181717172265053, -0.024202683940529823, -0.005442947149276733, -0.022678906098008156, 0.0254942886531353, -0.0264610406011343, -0.017445093020796776, -0.03488638624548912, -0.02112523280084133, 0.028064781799912453, 0.028036855161190033, 0.024681726470589638, 0.02667277120053768, 0.03109971061348915, -0.008988559246063232, 0.01614714413881302, 0.032466065138578415, 0.012476539239287376, 0.03633787855505943, 0.019014444202184677, 0.02256476692855358, -0.012272948399186134, 0.01721802167594433, 0.004133956506848335, -0.008519754745066166, -0.020127302035689354, -0.0200297012925148, -0.027456577867269516, 0.024045147001743317, 0.02556685172021389, -0.0037109407130628824, -0.020150749012827873, 0.02790374495089054, 0.023009348660707474, 0.002398927230387926, -0.01759249158203602, 0.03180059790611267, 0.013372482731938362, -0.028122708201408386, 0.033322859555482864, 0.026229433715343475, -0.013424389995634556, 0.01988922990858555, -0.02007777988910675, -0.00541379489004612, 0.030783142894506454, 0.00208271318115294, -0.02475009486079216, -0.011560073122382164, -0.009455406107008457, -0.006795238703489304, 0.0034505969379097223, 0.033038508147001266, 0.0019181964453309774, -0.02204609289765358, 0.0018557971343398094, 0.01719644106924534, 0.01790750026702881, -0.03226088732481003, -0.006046600174158812, -0.026584403589367867, -0.01520658377557993, 0.012509229592978954, -0.02592586539685726, 0.012602824717760086, 0.029813893139362335, 0.0021003764122724533, -0.024149756878614426, -0.013329613953828812, 0.00732664717361331, -0.02759731374680996, 0.017352430149912834, -0.03239491209387779, -0.034245215356349945, -0.034307170659303665, -0.006783244200050831, 0.02439894527196884, -0.03356124460697174, 0.02979128248989582, -0.014247394166886806, 0.01047262642532587, 0.0016338479472324252, -0.032194528728723526, 0.029649265110492706, 0.019312653690576553, 0.035714369267225266, 0.018449774011969566, -0.023311736062169075, 0.030037319287657738, 0.0020705563947558403, 0.01700218766927719, -0.028717070817947388, -0.010197200812399387, -0.034816812723875046, -0.013697873800992966, 0.007662529591470957, -0.028369519859552383, 0.010972270742058754, 0.018670540302991867, 0.004236842505633831, -0.024297283962368965, -0.027748938649892807, -0.010672151111066341, 0.016190558671951294, 0.03560447320342064, 0.020774662494659424, -0.0039071692153811455, 0.012567178346216679, -0.03502434864640236, -0.030503619462251663, 0.01667594723403454, -0.02019384689629078, 0.017282571643590927, -0.024968957528471947, -0.017261065542697906, -0.028993183746933937, 0.019101401790976524, -0.0030105654150247574, 0.027973083779215813, 0.022525427863001823, 0.02036486193537712, 0.0016303493175655603, -0.010907130315899849, -0.007585909683257341, 0.005235850345343351, 0.018086589872837067, -0.025333140045404434, 0.029187554493546486, -0.004553586710244417, -0.03005841374397278, -0.019322354346513748, 0.03186242654919624, 0.03302003815770149, -0.03285164386034012, 0.025309164077043533, 0.01794596202671528, 0.02115544304251671, 0.030240695923566818, -0.019238609820604324, 0.011323909275233746, 0.013904894702136517, -0.010741664096713066, 0.012259172275662422, -0.009731647558510303, 0.02274579554796219, -0.00914180837571621, -0.012693032622337341, 0.009683091193437576, 0.013291489332914352, -0.017173660919070244, 0.0034193771425634623, 0.021290959790349007, -0.0025408046785742044, 0.011556361801922321, -0.009096219204366207, 0.011595652438700199, -0.026644090190529823, -0.021135659888386726, -0.0183249581605196, 0.03273541480302811, -0.009273613803088665, 0.000117749092169106, -0.017187416553497314, 0.03569605201482773, 0.03489451855421066, -0.026930123567581177, -0.02893853560090065, -0.027017412707209587, -0.0008408394060097635, -0.009327108040452003, -0.023335732519626617, -0.012706036679446697, 0.007068494334816933, -0.01814054511487484, 0.008306475356221199, -0.007772329729050398, -0.017063645645976067, 0.004903108347207308, 0.029652556404471397, -0.023355843499302864, 0.0022343378514051437, -0.013166770339012146, 0.03432455286383629, -0.03475358337163925, -0.03492811694741249, 0.035197868943214417, -0.02283950336277485, 0.006647269707173109, -0.0027803999837487936, -0.007330837193876505, -0.007869984023272991, 0.022734209895133972, 0.001717706909403205, -0.03477194905281067, -0.021070661023259163, -0.013497665524482727, 0.017083536833524704, -0.023784838616847992, 0.0332590751349926, -0.008313808590173721, -0.00641570333391428, 0.028403105214238167, 0.018339412286877632, 0.030647775158286095, 0.02066550776362419, -0.01090999785810709, -0.023665761575102806, -0.002552010817453265, 0.02949182689189911, -0.01231815293431282, -0.03389992564916611, 0.013820613734424114, 0.03451582416892052, -0.010204997844994068, -0.029744496569037437, -0.03255261108279228, 0.00920566264539957, -0.002538522705435753, -0.017944587394595146, 0.007254892494529486, 0.013570151291787624, 0.028409413993358612, 0.027740690857172012, -0.006792043801397085, -0.03363689035177231, -0.03418995440006256, 0.032154008746147156, 0.014819193631410599, 0.014859169721603394, -0.03135490044951439, 0.03275710716843605, 0.03321835398674011, 0.031288743019104004, -0.030868275091052055, -0.0138893136754632, -0.02472948469221592, 0.033565204590559006, -0.015749020501971245, -0.016912689432501793, 0.01844995841383934, -0.016570845618844032, -0.017464654520154, -0.00313368858769536, -0.003392640268430114, -0.02761814370751381, 0.02990596741437912, -0.01568593457341194, 0.012695524841547012, 0.031068872660398483, 0.01801646500825882, 0.005064032040536404, 0.029777007177472115, 0.0024843912106007338, -0.019583890214562416, 0.031817223876714706, 0.006993000861257315, -0.0358053594827652, -0.010987807996571064, -0.02505309507250786, 0.030168509110808372, -0.006959676742553711, -0.03294752538204193, -0.0024691950529813766, 0.02221565507352352, 0.009194421581923962, 0.011211980134248734, 0.003378140041604638, 0.013440522365272045, -0.008766909129917622, -0.014057576656341553, -0.03318055346608162, -0.026694385334849358, 0.0156277883797884, -0.021051498129963875, 0.005174161866307259, 0.011416287161409855, 0.0025338975246995687, -0.023155350238084793, 0.034159738570451736, -0.02073780819773674, 0.02841859683394432, -0.030209852382540703, -0.009912444278597832, 0.018314309418201447, -0.015396674163639545, 0.029197413474321365, -0.025297919288277626, -0.030686261132359505, -0.01640397123992443, 0.0058462051674723625, 0.033013589680194855, -0.016827886924147606, 0.012990000657737255, -0.008825568482279778, -0.007421310059726238, 0.02642875164747238, -0.027704298496246338, 0.0040756347589194775, 0.033794306218624115, -0.004759608767926693, 0.027829986065626144, -0.010939269326627254, 0.02877664938569069, -0.03453424200415611, -0.005147274117916822, -0.0062730866484344006, 0.011574464850127697, 0.01402488723397255, 0.027460725978016853, -0.005242695100605488, -0.0018745443085208535, 0.024035826325416565, -0.009778095409274101, 0.031397461891174316, -0.023899216204881668, -0.004062524065375328, -0.0014769402332603931, 0.01651746593415737, 0.024995245039463043, -0.0052901278249919415, -0.029216699302196503, 0.017930740490555763, 0.010761420242488384, 0.014425870962440968, -0.021873535588383675, 0.023183085024356842, 0.03396419808268547, 0.0031948445830494165, -0.03329547494649887, 0.025105001404881477, -0.026465855538845062, 0.008215763606131077, 0.005189921241253614, -0.01671559177339077, 0.012435556389391422, -0.031935565173625946, 0.008148680441081524, -0.02260289527475834, -0.003791674505919218, 0.004711746238172054, 0.030601603910326958, -0.016799606382846832, 0.023185433819890022, -0.004172774031758308, -0.01655717007815838, -0.03067614883184433, -0.03234625980257988, 0.035280950367450714, -0.008540230803191662, 0.002108669839799404, 0.009960410185158253, 0.024500086903572083, 0.030654961243271828, 0.02909279800951481, -0.026371696963906288, -0.0056598735973238945, -0.021094845607876778, -0.02038382738828659, 0.008480391465127468, 0.03352833539247513, -0.02861085720360279, 0.021614445373415947, -0.018516669049859047, -0.006956224329769611, 0.028354132547974586, -0.008057858794927597, 0.0032946381252259016, -0.024892538785934448, 0.030509624630212784, -0.00446906266734004, -0.02593831904232502, 0.010671659372746944, -0.02515404298901558, -0.02808828093111515, 0.0024252799339592457, 0.028552157804369926, -0.009894157759845257, 0.016996856778860092, 0.03085099160671234, 0.02381603978574276, -0.018634870648384094, -0.0038425505626946688, -0.01118824165314436, -0.028687968850135803, 3.23991225741338e-05, 0.026880990713834763, 0.030095025897026062, 0.003332168096676469, 0.008111536502838135, -0.01546148769557476, 0.026958659291267395, -0.014861018396914005, -0.024809028953313828, 0.005507133901119232, 0.021418161690235138, -0.03217912092804909, 0.032313957810401917, 0.012883394956588745, -0.024978965520858765, -0.007635418325662613, 0.031047815456986427, -0.02733016386628151, -0.010361938737332821, 0.011795646511018276, -0.031211448833346367, 0.019648391753435135, 0.01864900439977646, 0.022195586934685707, -0.022737331688404083, 0.03559453412890434, -0.02115541137754917, 0.03566649556159973, -0.034267324954271317, -0.03182035684585571, 0.021935584023594856, 0.003732604905962944, 0.0020603325683623552], [-0.0197770856320858, -0.014981266111135483, -0.010442410595715046, -0.03479126840829849, 0.001856024842709303, 0.006316389422863722, -3.0236586098908447e-05, 0.011533226817846298, 0.03388753533363342, 0.009495859034359455, -0.013074015267193317, -0.014698097482323647, -0.02284453809261322, -0.02475043199956417, -0.005746543873101473, -0.006311534903943539, 0.015887945890426636, -0.015265601687133312, 0.028471561148762703, -0.025060007348656654, 0.00010150671732844785, 0.032104283571243286, 0.035513754934072495, -0.02068793773651123, 0.006361748557537794, 0.00421866774559021, -0.0167447030544281, -0.012339103035628796, 0.009673357009887695, -0.024834472686052322, 0.005892702843993902, 0.015454454347491264, -0.014068777672946453, 0.02967371977865696, -0.0023385025560855865, 0.016219785436987877, 0.03538839891552925, -0.010890103876590729, 0.01944136433303356, -0.010173491202294827, -0.005172561854124069, -0.006007830146700144, -0.00017604533059056848, -0.013448911719024181, 0.008412946946918964, 0.0013837919104844332, 0.022670721635222435, -0.0072030602023005486, 0.003603779710829258, -0.013271256349980831, -0.02989838272333145, 0.014458020217716694, 0.004569926764816046, -0.014302991330623627, -0.012075177393853664, 0.009340047836303711, -0.006457746494561434, 0.023338425904512405, 0.002028190065175295, 0.013497468084096909, 0.015571510419249535, -0.00874821376055479, 0.015477783046662807, 0.02639361098408699, 0.0016957385232672095, 0.007062666118144989, 0.0013937086332589388, 0.024847596883773804, -0.01493575144559145, -0.018820766359567642, 0.01574382744729519, -0.030889997258782387, 0.0007645893492735922, -0.016244100406765938, 0.023736629635095596, -0.03311286121606827, 0.02176246978342533, 0.035411641001701355, 0.007280077785253525, -0.0023470043670386076, 0.035173479467630386, -0.015252537094056606, -0.002861912827938795, -0.01563946343958378, -0.004930044990032911, 0.0077621047385036945, 0.004776930436491966, -0.006734161637723446, -0.03568992018699646, 0.0018595207948237658, -0.0012253845343366265, 0.004732897505164146, 0.02627992443740368, 0.034006934612989426, -0.021652067080140114, -0.0022210332099348307, -0.014194773510098457, -0.03260071203112602, -0.025641685351729393, 0.033883024007081985, 0.021185042336583138, 0.01952378638088703, 0.01993411034345627, -0.02856426127254963, 0.0038514696061611176, 0.03338756784796715, -0.01982574351131916, 0.031837187707424164, 0.009428368881344795, 0.02514788880944252, -0.015291241928935051, 0.016464918851852417, -0.031660277396440506, -0.002262490801513195, 0.011922496370971203, 0.01073101069778204, 0.029919425025582314, 0.03516250476241112, 0.03234978765249252, 0.023290900513529778, 0.024737907573580742, -0.005103116389364004, -0.028088020160794258, -0.013476190157234669, -0.004134806338697672, -0.01941346935927868, 0.01826595328748226, 0.012574560008943081, 0.0058344891294837, 0.008673779666423798, 0.03126367926597595, 0.012748797424137592, -0.03130681812763214, -0.026077669113874435, 0.015503908507525921, 0.00458007724955678, 0.01685798540711403, -0.0366082563996315, -0.03293822705745697, 0.021908331662416458, 0.02284448966383934, -0.032305922359228134, 0.01357219833880663, -0.02785690501332283, 0.027119647711515427, 0.011332707479596138, 0.03532371670007706, -0.035892054438591, -0.03531244397163391, 0.023286979645490646, 0.03113006241619587, 0.02109585329890251, 0.02308814972639084, -0.03063947893679142, 0.025618955492973328, -0.0338989682495594, 0.007643611636012793, -0.02381869964301586, -0.014801373705267906, 0.00564033817499876, -0.014884733594954014, -0.006765667349100113, -0.035063933581113815, -0.03462516888976097, 0.013707303442060947, -0.015395713970065117, -0.021682433784008026, -0.014081703498959541, -0.02919887751340866, -0.028543082997202873, 0.021390972658991814, 0.018202511593699455, 0.004868656396865845, -0.019324468448758125, 0.012090874835848808, 0.0013490651035681367, -0.025980206206440926, 0.0072791846469044685, 0.03183196485042572, -0.035647425800561905, -0.035942912101745605, 0.004321782849729061, 0.026664238423109055, -0.021794646978378296, 0.00774605805054307, 0.02474813535809517, 0.010594954714179039, 0.007329508662223816, 0.0347263403236866, 0.021923653781414032, -0.020994635298848152, 0.002439056755974889, 0.018454035744071007, 0.03164024278521538, -0.035466454923152924, 0.019360657781362534, -0.01036378089338541, -0.03495412692427635, 0.007964543998241425, -0.02095610275864601, 0.004426242783665657, -0.023496238514780998, -0.027125025168061256, -0.003297398565337062, -0.012569119222462177, 0.020476074889302254, 0.002454147208482027, 0.027316581457853317, 0.006329156458377838, -0.011701522395014763, 0.024098053574562073, 0.0020790507551282644, 0.006915747188031673, -0.011567258276045322, 7.245634333230555e-05, -0.007141260430216789, -0.003938258159905672, -0.029334235936403275, -0.000961162440944463, -0.02958732657134533, -0.007411346770823002, 0.020866021513938904, -0.024755435064435005, -0.024052098393440247, -0.008714145049452782, -0.009765787050127983, 0.006105865351855755, 0.005414958577603102, 0.017208678647875786, -0.025276729837059975, -0.00308765796944499, 0.01969270221889019, 0.030650276690721512, -0.0027715137694031, -0.020680630579590797, 0.010261159390211105, 0.02054862678050995, -0.02204570546746254, -0.020400846377015114, 0.016019580885767937, -0.0022235633805394173, -0.03376990929245949, -0.020946787670254707, 0.014128386974334717, -0.01297968439757824, 0.02361438423395157, 0.027779260650277138, 0.0054601458832621574, -0.002550397301092744, -0.01116875559091568, -0.0017283946508541703, 0.0065199872478842735, -0.027270810678601265, -0.008504385128617287, -0.029634665697813034, 0.021099617704749107, -0.02396937645971775, 0.031995952129364014, -0.009621676988899708, -0.020522840321063995, 0.017260298132896423, 0.00555789889767766, 0.025242988020181656, 0.01549701951444149, -0.033869192004203796, 0.023221822455525398, -0.006218534428626299, -0.015453379601240158, 0.022908754646778107, 0.025709811598062515, -0.03200191631913185, -0.0037253478076308966, 0.02852507121860981, 0.0131955211982131, 0.029976483434438705, -0.011839867569506168, -0.019449763000011444, 0.030857093632221222, 0.014953987672924995, 0.034305743873119354, -0.014907973818480968, -0.02289922907948494, -0.004113466013222933, -0.03477364778518677, 0.013379951938986778, 0.026142587885260582, 0.008730619214475155, -0.003073477651923895, 0.01841290481388569, -0.021914167329669, 0.03594084456562996, -0.034677617251873016, -0.033620722591876984, -0.008213195018470287, 0.029282253235578537, 0.0034693784546107054, 0.013311679475009441, -0.027153953909873962, 0.012501480989158154, -0.004455613438040018, 0.013847535476088524, 0.025300804525613785, 0.015927810221910477, -0.0026634999085217714, -0.001977532170712948, -0.02228683792054653, -0.012864820659160614, 0.023226719349622726, -0.014311457984149456, 0.02220839075744152, -0.014097457751631737, -0.009687782265245914, 0.00010251344065181911, -0.03277122229337692, 0.00011159630957990885, -0.0029284111224114895, -0.0023014245089143515, -0.006235694047063589, 0.028735727071762085, 0.026483580470085144, -0.024399010464549065, 0.016283588483929634, -0.02851833589375019, -0.031164126470685005, 0.009891689755022526, -0.00017115919035859406, -0.01690719835460186, -0.034570083022117615, -0.013455790467560291, 0.012408033944666386, -0.03254597634077072, -0.03433794528245926, 0.004740352742373943, -0.025643160566687584, -0.031248589977622032, -0.013746943324804306, -0.005743229296058416, -0.03243156149983406, -0.023797625675797462, 0.0021755401976406574, -0.03362511470913887, -0.0047074733301997185, -0.022571725770831108, -0.024051250889897346, 0.014964252710342407, -0.027118001133203506, -0.027180293574929237, 0.020168431103229523, 0.006211624946445227, 0.031483087688684464, -0.010426543653011322, -0.01807543821632862, -0.004016687162220478, -0.00017103452410083264, 0.027575377374887466, -0.03510623797774315, -0.0017781115602701902, 0.016445906832814217, -0.019174618646502495, -0.017793355509638786, 0.01747368834912777, -0.034146104007959366, 0.008492096327245235, -0.02763678878545761, 0.017757410183548927, -0.030521847307682037, 0.021992646157741547, -0.033730462193489075, -0.029849208891391754, 0.0008564519812352955, 0.028661124408245087, -0.029873616993427277, -0.015236045233905315, 0.03150567412376404, -0.006380898877978325, 0.013767922297120094, -0.035875026136636734, -0.012625190429389477, -0.01914340630173683, 0.02925015613436699, 0.014351008459925652, -0.025748107582330704, 0.006271861027926207, 0.0002600880980025977, -0.014004590921103954, -0.01975603960454464, -0.011357206851243973, 0.028516504913568497, -0.02537352405488491, -0.02535894699394703, -0.01098818052560091, 0.0006307989242486656, 0.009727085009217262, 0.0010819646995514631, -0.008572288788855076, -0.021585822105407715, -0.006230633705854416, -0.014020651578903198, 0.029383178800344467, -0.03430594876408577, -0.022402606904506683, -0.029258564114570618, -0.007410595193505287, 0.026626363396644592, 0.029877400025725365, -0.03229662403464317, -0.0025050423573702574, 0.020151138305664062, 0.015421414747834206, 0.02911997400224209, -0.0007908239495009184, -0.02383841574192047, 0.024099567905068398, -0.01163018774241209, 0.01900358311831951, -0.00842187087982893, 0.015422655269503593, 0.0322180911898613, 0.03324207291007042, -0.032493386417627335, -0.023618213832378387, -0.014761298894882202, -0.02274957485496998, 0.034340258687734604, -0.002961135236546397, -0.023308327421545982, -0.01543451752513647, -0.019560176879167557, 0.014770641922950745, -0.031489476561546326, -0.03387274965643883, -0.03591309115290642, 0.01481487974524498, 0.017335394397377968, -0.022542016580700874, 0.008347025141119957, 0.025888152420520782, 0.004701552446931601, -0.008051136508584023, 0.0026202492881566286, -0.0037006800994277, 0.018415262922644615, -0.02379683405160904, 0.01849694736301899, 0.02037266455590725, -0.021531619131565094, 0.029202396050095558, 0.03509059548377991, -0.014074388891458511, -0.009993577376008034, 0.017828993499279022, -0.027896201238036156, 0.014339511282742023, 0.008741614408791065, 0.022908570244908333, -0.030670464038848877, -0.02940896525979042, 0.01615677773952484, 0.012838133610785007, -0.033121589571237564, -0.01961025595664978, -0.032410141080617905, -0.0255133043974638, -0.016405215486884117, 0.02911660261452198, -0.007727188058197498, 0.019588259980082512, 0.03342274948954582, 0.016150226816534996, -0.031620677560567856, 0.018490580841898918, 0.014001298695802689, 0.027920475229620934, -0.035114407539367676, 0.022010331973433495, 0.029247330501675606, -0.03322731330990791, 0.0037481088656932116, 0.030523838475346565, -0.02587401308119297, 0.011963135562837124, 0.016212917864322662, 0.009861155413091183, 0.03601967915892601, 0.02989603392779827, 0.03113275021314621, -0.003982884809374809, 0.0306241437792778, -0.03269165754318237, -0.018943095579743385, -0.0072843958623707294, -0.01006191223859787, 0.03327984735369682, 0.01636284776031971, 0.021967152133584023, 0.023352941498160362, -0.026950808241963387, -0.004208615515381098, 0.005465046502649784, 0.009649858810007572, 0.018596818670630455, -0.014090186916291714, -0.010721337981522083, 0.029899222776293755, -0.009577596560120583, -0.024798935279250145, 0.024262232705950737, 0.023532744497060776, -0.011353152804076672, -0.006819731090217829, -0.02580673061311245, -0.029156921431422234, 0.014209656044840813, -0.014621482230722904, 0.02913866750895977, -0.027902960777282715, -0.004468325525522232, 0.001273055444471538, 0.01909324899315834, 0.029954547062516212, 0.024864420294761658, 0.015068483538925648, -0.017546264454722404, -0.026549464091658592, -0.03221113234758377, 0.0014781554928049445, 0.03451217710971832, -0.006444793194532394, -0.0012867629993706942, -0.025836555287241936, 0.011007762514054775, 0.022655798122286797, -0.035206131637096405, -0.0251331627368927, 0.026507988572120667, 0.007844892330467701, -0.0024122714530676603, 0.00641069607809186, -0.005362709518522024, -0.024633966386318207, -0.03282590210437775, 0.023910919204354286, -0.0037798690609633923, -0.012872163206338882, -0.008987103588879108, -0.019037974998354912, -0.009727519005537033, -0.03012559935450554, 0.026578227058053017, 0.013616224750876427, -0.01915876939892769, -0.013140222057700157, 0.015941085293889046, -0.013538640923798084, 0.009175562299787998, 0.010137680917978287, -0.022287938743829727, 0.00905394647270441, 0.0022253282368183136, 0.031203027814626694, -0.012922142632305622, -0.009167293086647987, 0.028788700699806213, -0.030405132099986076, 0.0017261775210499763, 0.03382149338722229, -0.016491848975419998, 0.034224554896354675, 0.03213037550449371, 0.033652134239673615, -0.002935356693342328, 0.03247993439435959, -0.0155079560354352, -0.012242204509675503, 0.013439255766570568, 0.007267501205205917, 0.019100792706012726, 0.032889243215322495, -0.02342367358505726, 0.01858142949640751, 0.011862630024552345, 0.018641695380210876, 0.016743576154112816, -0.013102182187139988, -0.028060100972652435, 0.0286764707416296, -0.020329412072896957, 0.022840501740574837, -0.03401778265833855, -0.006165813188999891, -0.001785318017937243, 0.00348468404263258, 0.0002813489409163594, 0.009551966562867165, -0.005305825732648373, 0.0077696857042610645, 0.034648045897483826, -0.023538146167993546, -0.0025415087584406137, -0.014553508721292019, 0.030505510047078133, 0.029943114146590233, -0.0013943907106295228, -0.01290277112275362, -0.022710399702191353, 0.02473919838666916, -0.0028399296570569277, 0.03355712443590164, 0.02047210931777954, 0.031234754249453545, 0.02827933058142662, -0.02300473116338253, 0.010586671531200409, -0.014740359038114548, 0.017947081476449966, -0.0032058567740023136, 0.0030969807412475348, -0.024692654609680176, -0.03284284844994545, 0.010681821033358574, 0.0044283936731517315, 0.0005394912441261113, 0.02234022133052349, -0.016230491921305656, 0.01156871858984232, -0.020548732951283455, 0.006214463617652655, -0.009277638979256153, 0.02446620911359787, 0.030811697244644165, 0.030618442222476006, 0.001369343139231205, 0.020857730880379677, -0.03570285812020302, -0.02086476981639862, 0.006298829801380634, 0.0003408463962841779, -0.027838390320539474, -0.015595792792737484, -0.016530344262719154, -0.03528829291462898, 0.003456807229667902, 0.024362921714782715, 0.014500346034765244, -0.01696903444826603, -0.03279000148177147, -0.028783226385712624, -0.00036355271004140377, 0.022517874836921692, -0.01595398783683777, -0.02078481763601303, -0.020091893151402473, -0.004060069564729929, -0.03455403447151184, -0.03215803578495979, 0.03481417894363403, -0.017072876915335655, -0.006423020735383034, -0.009432711638510227, -0.03124145045876503, -0.006224439479410648, 0.011250317096710205, -0.014342263340950012, -0.001559561351314187, 0.00011312405695207417, -0.03534403815865517, 0.026103155687451363, 0.02894977293908596, 0.02440979890525341, -0.011700320057570934, 0.018676338717341423, -0.033461518585681915, -0.008835239335894585, -0.007263724692165852, -0.012599202804267406, 0.015038964338600636, -0.016194719821214676, -0.004623723216354847, -0.010747462511062622, -0.03366102650761604, -0.0058022052980959415, -0.030250094830989838, 0.020690035074949265, 0.019486675038933754, 0.03400658071041107, -0.01144655141979456, 0.0021322048269212246, 0.00736353499814868, 0.03587888181209564, 0.032805461436510086, -0.018410449847579002, -0.0302335936576128, -0.03198997303843498, -0.017060376703739166, 0.03012462705373764, 0.012058466672897339, 0.03449321165680885, 0.026486823335289955, 0.0005238600424490869, -0.02213483676314354, 0.03487502411007881, 0.028648974373936653, 0.015470769256353378, -0.01949489675462246, 0.028173452243208885, 0.0033212993294000626, 0.02373417280614376, 0.015082184225320816, 0.019206658005714417, -0.031030738726258278, -0.019436223432421684, 0.021827755495905876, -0.007013786118477583, -0.030645523220300674, 0.032883334904909134, -0.0004028980329167098, 0.029137177392840385, -0.027635134756565094, 0.012521700002253056, -0.013277508318424225, -0.014900334179401398, -0.007359890267252922, -0.013156910426914692, 0.019608914852142334, -0.006763938348740339, 0.027087975293397903, 0.008154627867043018, -0.005518402438610792, -0.0206285510212183, -0.03270260989665985, -0.010418654419481754, -0.03306734934449196, -0.006597020663321018, 0.0006266679847612977, -0.0022281508427113295, -0.01743454858660698, 0.024936731904745102, 0.02029760554432869, -0.008583550341427326, -0.01386982761323452, 0.022706232964992523, 0.0313236266374588, -0.032463427633047104, -0.007502512075006962, -0.0031257395166903734, -0.012768685817718506, 0.03061864897608757, -0.0051752617582678795, 0.030353253707289696, 0.0002274116559419781, -0.0038430546410381794, -0.0208144374191761, -0.011866864748299122, 0.01151342038065195, 0.015797769650816917, -0.001270720036700368, 0.03403010219335556, -0.024719031527638435, 0.013693337328732014, 0.032166987657547, -0.006202667485922575, 0.028365515172481537, 0.0006094471900723875, -0.026714853942394257, -0.019557340070605278, 0.01333663146942854, -0.015397211536765099, 0.00865293201059103, 0.035223547369241714, 0.012208509258925915, -0.003259859047830105, 0.00900480430573225, -0.02050619386136532, -0.029950618743896484, -0.02680070884525776, -0.02993551455438137, 0.0073524946346879005, 0.006971289869397879, -0.015165870077908039, -0.03492656722664833, 0.019346600398421288, -0.02026461809873581, -0.005962418857961893, -0.02994578331708908], [-0.02014850825071335, 0.014898569323122501, -0.03327596187591553, -0.020365703850984573, 0.026776080951094627, -0.018316026777029037, -0.01486271247267723, -0.010027634911239147, 0.015266397967934608, -0.023427488282322884, 0.0035809066612273455, 0.014585810713469982, -0.002586738672107458, 0.006465475540608168, -0.02723911963403225, 0.01615169644355774, 0.01334748137742281, -0.004479719325900078, -0.0295310840010643, 0.01428484171628952, 0.023305054754018784, -0.00624671159312129, 0.016833489760756493, 0.013237825594842434, -0.014284555800259113, -0.0024792978074401617, 0.03555137664079666, 0.0001686087780399248, -0.028432626277208328, -0.002604582579806447, 0.01776759698987007, -0.011657987721264362, -0.018697630614042282, 0.029428917914628983, 0.018905598670244217, -0.006051243748515844, 0.001845691236667335, -0.003749602474272251, 0.008326850831508636, 0.0013127003330737352, -0.02156594581902027, 0.0066633508540689945, 0.0009816769743338227, 0.0023535022046417, -0.0135666998103261, 0.00919032096862793, -0.028847206383943558, 0.010702507570385933, 0.01937653124332428, -0.003915820270776749, -0.027731778100132942, -0.0001239955599885434, 5.069801045465283e-05, -0.030864456668496132, -0.025260543450713158, 0.03303352743387222, 0.026707811281085014, 0.019792966544628143, 0.02474680356681347, 0.013755809515714645, 0.020110944285988808, 0.023669783025979996, -0.00831669569015503, -0.00449974462389946, 0.02552015893161297, 6.357581150950864e-05, -0.023139139637351036, -0.02756805345416069, 0.020122207701206207, 0.029752949252724648, 0.027924254536628723, 0.006143526174128056, 0.024852190166711807, -0.03260301426053047, -0.025560574606060982, -0.03422156348824501, 0.028886348009109497, -0.00024274286988656968, -0.016389481723308563, 0.01211851928383112, -0.01335021574050188, -0.02289472334086895, 0.013774940744042397, 0.006539242807775736, -0.025575660169124603, -0.023523641750216484, 0.016752490773797035, 0.027168121188879013, 0.0029267817735671997, -0.017906775698065758, 0.01707535795867443, 0.005576712545007467, -0.032374344766139984, -0.023864535614848137, 0.0073471153154969215, 0.022109128534793854, -0.011351583525538445, 0.017596261575818062, -0.021758990362286568, 0.034553010016679764, 0.02582320012152195, 0.007042303681373596, 0.015966741368174553, 0.012212960049510002, -0.020975735038518906, -0.00015804162831045687, 0.009633519686758518, -0.007992750965058804, 0.03429090231657028, -0.013750585727393627, -0.031886711716651917, -0.01700272038578987, -0.03314588963985443, 0.029435697942972183, -0.01602214388549328, -0.025106342509388924, -0.0038259762804955244, -0.023994406685233116, -0.018798867240548134, 0.017508331686258316, -0.027189621701836586, 0.016366180032491684, 0.02569783851504326, -0.00026933063054457307, 0.015767283737659454, -0.020019959658384323, 0.027958640828728676, 0.034836720675230026, 0.008662079460918903, 0.03269236907362938, -0.0355149582028389, -0.004172720480710268, 0.007079756818711758, -0.03124096430838108, 0.0170908123254776, -0.014242853969335556, -0.014445886947214603, -0.03074294701218605, 0.014622844755649567, -0.02597901225090027, -0.00757877342402935, 0.01587079092860222, 0.02692139893770218, 0.008107448928058147, -0.013247234746813774, -0.015403778292238712, 0.020060192793607712, 0.005946769844740629, 0.029149988666176796, 0.012622261419892311, 0.028227146714925766, -0.029447467997670174, 0.02818845957517624, -0.01682998053729534, -0.009654219262301922, 0.00013433705316856503, -0.006882577668875456, 0.006794916465878487, 0.03133125975728035, -0.021922802552580833, 0.010252928361296654, -0.02996269427239895, 0.003924455959349871, 0.02801082283258438, 0.02350534126162529, 0.02974485605955124, 0.019380521029233932, -0.0029438971541821957, 0.009324878454208374, -0.01491619274020195, 0.0303364135324955, 0.017935262992978096, -0.02602437138557434, 0.031072432175278664, -0.0003111029218416661, -0.0018302955431863666, -0.01021098904311657, -0.009799196384847164, 0.0012301704846322536, -0.017826644703745842, -0.03351669758558273, -0.01851869560778141, -0.007196343038231134, 0.02697727642953396, 0.026327311992645264, -0.021576790139079094, -0.0016252767527475953, -0.010578768327832222, -0.01992594078183174, -0.007762067951261997, -0.013702536933124065, 0.018999449908733368, -0.017539186403155327, 0.0056436811573803425, -0.020084673538804054, -0.011124622076749802, 0.028120551258325577, -0.01751468889415264, -0.0021092162933200598, 0.03258931264281273, 0.011589975096285343, -0.018478691577911377, -0.021675502881407738, -0.012769406661391258, -0.01173965074121952, 0.015164276584982872, -0.008436654694378376, 0.029715515673160553, -0.019835492596030235, -0.011242284439504147, 0.013121671974658966, 0.028766106814146042, 0.034504733979701996, 0.0057517364621162415, 0.0015719274524599314, -0.016153845936059952, 0.019304657354950905, -0.022274792194366455, -0.010343546979129314, -0.02983945980668068, -0.03405143693089485, 0.020136907696723938, 0.002507820026949048, 0.028492512181401253, 0.02842564880847931, 0.018766842782497406, 0.014354819431900978, -0.00978135410696268, 0.01808437705039978, 0.016526835039258003, 0.011805864050984383, -0.0013004335341975093, 0.005126561038196087, 5.293657522997819e-05, -0.02584596537053585, 0.00839939247816801, -0.025924796238541603, 0.01770717278122902, -0.020850518718361855, -0.011327017098665237, -0.016543829813599586, 0.028252465650439262, -0.025440525263547897, 0.01793680526316166, 0.016988031566143036, 0.02415560372173786, 0.008506180718541145, 0.019738122820854187, 0.028516270220279694, 0.007209189236164093, 0.012223970144987106, -0.02790624275803566, -0.009569686837494373, 0.003270643763244152, 0.004402359016239643, -0.013399061746895313, -0.03658079728484154, -0.009892030619084835, 0.01326557993888855, 0.030704312026500702, -0.032110076397657394, 0.01735108159482479, -0.03329721838235855, -0.03348613530397415, -0.021785635501146317, -0.004014155827462673, 0.010558629408478737, -0.02675500325858593, 0.027809157967567444, 0.03200985863804817, 0.0016768085770308971, 0.02852177992463112, -0.01704186014831066, -0.014680322259664536, -0.0046663591638207436, 0.004316914826631546, -0.02465245872735977, -0.028446175158023834, 0.01417835894972086, 0.010318825952708721, 0.034948308020830154, -0.014528237283229828, 0.012687633745372295, -0.015504907816648483, 0.017050305381417274, -0.0021469402126967907, 0.02664286084473133, 0.020309122279286385, 0.030456140637397766, 0.0191594660282135, 0.0023832458537071943, 0.03149838000535965, -0.020558126270771027, 0.03390323743224144, 0.0350622683763504, 0.034073591232299805, -0.01705199107527733, -0.019801028072834015, 0.001736337784677744, 0.010604558512568474, 0.0174933560192585, 0.014635209925472736, 0.030833780765533447, -0.008559093810617924, -0.011486003175377846, 0.012088174931704998, 0.010007535107433796, -0.02081422321498394, 0.0034646743442863226, -0.027086587622761726, -0.010410619899630547, -0.015326584689319134, 0.030688108876347542, -0.03212309628725052, -0.020600575953722, -0.03425406292080879, 0.009948893450200558, -0.02656746096909046, 0.011994670145213604, -0.024884365499019623, -0.023177897557616234, -0.018521053716540337, 0.0049006701447069645, 0.0321577750146389, 0.03252016007900238, -0.003383471630513668, -0.03527428209781647, -0.011925145983695984, -0.013185692951083183, -0.007088704966008663, 0.014176708646118641, 0.01834353618323803, 0.016051970422267914, 0.010291256941854954, -0.01441662572324276, -0.0003650802536867559, 0.004552327562123537, -0.018219469115138054, -0.0031431796960532665, -0.004610969219356775, -0.033679574728012085, 0.02453574538230896, -0.003103091148659587, -0.03013940341770649, 0.02920575439929962, -0.018975576385855675, 0.012338965199887753, 0.035123102366924286, 0.0011932862689718604, 0.009322328492999077, 0.013424145989120007, 0.02631167322397232, -0.011616974137723446, -0.020485209301114082, -0.002491443883627653, 0.02845989167690277, 0.0038717042189091444, 0.02548699826002121, 0.00024586261133663356, 0.0113258957862854, 0.0014641460729762912, 0.0010471435962244868, -0.033955901861190796, -0.031209437176585197, 0.002974330447614193, 0.017692100256681442, 0.024027841165661812, 0.0016304265009239316, 0.015231894329190254, 0.015279746614396572, -0.030292006209492683, -0.030665311962366104, -0.027115395292639732, 0.0005930867628194392, -0.023035768419504166, -0.012374631129205227, -0.006744353100657463, 0.012675135396420956, 0.007409307174384594, 0.03231360763311386, 0.03167949616909027, -0.022477246820926666, 0.00046471651876345277, 0.006622432265430689, 0.03186690807342529, -0.010404695756733418, -0.01352280005812645, -0.022243957966566086, 0.02655351161956787, -0.01003312412649393, -0.013344382867217064, 0.024165919050574303, 0.032868415117263794, -0.0014944092836230993, -0.025149209424853325, 0.029171660542488098, -0.01203001569956541, -0.0160882119089365, -0.024568362161517143, -0.016849026083946228, -0.027776673436164856, -0.02087452821433544, -0.03335980698466301, -0.0083222771063447, 0.013035335578024387, -0.0281839482486248, -0.0009268264402635396, -0.014060603454709053, 0.01689353957772255, 0.030816800892353058, -0.0044064708054065704, -0.017683764919638634, -0.026931460946798325, -0.02034202590584755, 0.010842228308320045, 0.008588286116719246, 0.019483085721731186, -0.005207386799156666, 0.018385397270321846, -0.03180939704179764, 0.009606996551156044, 0.03467678278684616, -0.035319939255714417, -0.018465114757418633, 0.023063652217388153, -0.005186909809708595, -0.01866244338452816, 0.021710004657506943, 0.002372404560446739, 0.0010458718752488494, -0.011423313058912754, 0.026177842170000076, 0.019229978322982788, 0.0060171280056238174, 0.00494743837043643, 0.017773358151316643, 0.021637555211782455, -0.015115221962332726, -0.004311996512115002, 0.015749001875519753, -0.017193185165524483, 0.03384409844875336, -0.023976938799023628, 0.016881098970770836, -0.025401504710316658, 0.011577489785850048, 0.02498580329120159, 0.004318385850638151, -0.0035741636529564857, 0.022721366956830025, -0.02561257965862751, -0.024008937180042267, -0.03021492436528206, -0.021559009328484535, 0.0011818910716101527, -0.016016239300370216, 0.008050314150750637, 0.0012210403801873326, 0.029589330777525902, -0.015451429411768913, -0.00955106783658266, 0.02376507595181465, -0.009144456125795841, 0.03373240306973457, -0.014759055338799953, -0.001038636197336018, -0.009282175451517105, 0.016243845224380493, 0.013604912906885147, -0.01865081675350666, 0.024071861058473587, -0.0018763119587674737, -0.008782656863331795, -0.0006006360636092722, 0.02490241266787052, 0.03504784032702446, 0.01737823709845543, 0.0062612686306238174, 0.023345233872532845, -0.014829428866505623, -0.018410490825772285, -0.00986576173454523, -0.02268059551715851, 0.015772366896271706, 0.003981461748480797, -0.011780203320086002, -0.0032149653416126966, -0.00010254907101625577, 0.031107643619179726, 0.03201820328831673, -0.0273002739995718, 0.01359594613313675, 0.014132656157016754, 0.013277454301714897, -0.005695178639143705, 0.008176610805094242, 0.00882556289434433, 0.03469551354646683, -0.03397364169359207, -0.013178123161196709, -0.023788465186953545, -0.01719856821000576, 0.007061644922941923, 0.02179775945842266, -0.02699979767203331, 0.023239048197865486, 0.029880516231060028, -0.01814582571387291, 0.006147186737507582, -0.017979707568883896, 0.008218520320951939, -0.015862157568335533, -0.013101575896143913, -0.02324964478611946, -0.029056871309876442, 0.029152758419513702, -0.004220729228109121, -0.0006943814223632216, -0.017132069915533066, 0.025963416323065758, -0.019691171124577522, -0.01488062459975481, -0.028823498636484146, -0.030902346596121788, 0.03152488172054291, -0.027869364246726036, -0.0050432151183485985, -0.009986091405153275, 0.013306714594364166, 0.009673716500401497, -0.02733347937464714, 0.03208813816308975, -0.03557080775499344, 0.0035469490103423595, -0.002927508670836687, -0.008780432865023613, 0.024227691814303398, 0.030236350372433662, 0.004768943414092064, -0.012245646677911282, 0.027138587087392807, 0.02289944887161255, 0.006880210246890783, -0.009506524540483952, 0.0015228521078824997, 0.03214516118168831, 0.0047201067209243774, -0.006391133181750774, -0.030196448788046837, -0.01991131342947483, 0.02482697367668152, -0.002066519344225526, -0.0024495916441082954, 0.013602674938738346, -0.02371099591255188, -0.0020969610195606947, -0.009843450039625168, 0.018798017874360085, 0.029106849804520607, 0.02243642881512642, 0.026626987382769585, -0.03190367668867111, -0.01362726092338562, 0.003563860896974802, -0.030882909893989563, 0.009232745505869389, -0.023752855136990547, 0.015393171459436417, 0.029414163902401924, -0.030056267976760864, 0.03037329390645027, 0.016707323491573334, -0.023610901087522507, 0.0342315137386322, -0.030810575932264328, -0.02412469871342182, -0.018157372251152992, -0.002673204056918621, 0.005467425100505352, -0.010818463750183582, -0.03391723707318306, -0.004294862039387226, 0.02693645842373371, 0.027765024453401566, 0.018051546066999435, 0.0052800956182181835, 0.00891161523759365, -0.027524815872311592, 0.014467524364590645, -0.035530805587768555, -0.015788309276103973, -0.011384261772036552, 0.023969441652297974, -0.0024959202855825424, -0.017372997477650642, 0.005474624689668417, -0.0301310233771801, -0.009755227714776993, 0.009297461248934269, -0.0033084957394748926, -0.004508383572101593, 0.02137725241482258, -0.02735142782330513, -0.0183631032705307, 0.03405909612774849, 0.0063550351187586784, -0.006120880600064993, 0.01845378987491131, 0.021622564643621445, -0.0059627871960401535, -0.014823460020124912, -0.005626084748655558, 0.01310624461621046, -0.004487877711653709, 0.02081410400569439, -0.029119068756699562, -0.01751716621220112, 0.02723437175154686, 0.004253222607076168, 0.004907840862870216, 0.00823836401104927, -0.010741835460066795, -0.015984630212187767, 0.009111693128943443, -0.010414352640509605, -0.015578916296362877, 0.0034905606880784035, 0.007491798140108585, -0.003675136948004365, -0.02442399226129055, -0.005670386366546154, -0.020408252254128456, 0.018647050485014915, -0.023630693554878235, 0.02860019914805889, 0.014172498136758804, -0.030414726585149765, 0.02671903930604458, -0.035098847001791, -0.0019205937860533595, -0.022198738530278206, -0.030671479180455208, 0.003555913455784321, -0.017310962080955505, 0.025815565139055252, -0.02806996926665306, 0.029675064608454704, 0.020491961389780045, 0.02909335307776928, -0.01200961321592331, -0.02318560518324375, -0.024662712588906288, 0.028739193454384804, -0.018578503280878067, -0.005167784169316292, -0.005855744704604149, 0.006177001167088747, -0.029220042750239372, 0.028981974348425865, -0.02623908221721649, 0.03524497523903847, -0.013628455810248852, -0.015763811767101288, -0.004931218456476927, 0.010865334421396255, -0.006399619858711958, -0.03548991680145264, 0.025225428864359856, 0.03543645516037941, 0.018048150464892387, 0.034961238503456116, 0.009733941406011581, -0.00279856170527637, -0.028446262702345848, -0.031200673431158066, -0.024548731744289398, -0.00897976104170084, 0.020292649045586586, -0.015195973217487335, -0.001520394580438733, -0.0004167922888882458, -0.0234571173787117, -0.0012257933849468827, 0.03490392491221428, 0.029126174747943878, 0.027778657153248787, -0.00317570473998785, 0.0010246919700875878, 0.019772646948695183, -0.01179441250860691, -0.014388390816748142, 0.030722331255674362, 0.0022454499267041683, -0.023971077054739, 0.030193254351615906, 0.005994025152176619, 0.01914466917514801, -0.031003015115857124, 0.006633879151195288, 0.021844660863280296, -0.0051523237489163876, -0.020300162956118584, 0.02858242578804493, 0.01662653125822544, 0.010211572051048279, 0.008519741706550121, 0.0009114668355323374, 0.020663896575570107, -0.0075561292469501495, -0.020703617483377457, 0.014018071815371513, 0.0099512729793787, 0.014041201211512089, -0.0035254519898444414, -0.004319242667406797, -0.0024550235830247402, 0.009756731800734997, -0.02711525931954384, -0.03305375948548317, 0.013545747846364975, -0.019420012831687927, -0.0029119644314050674, 0.009965992532670498, 0.0050496552139520645, 0.02304621785879135, 0.004690658766776323, 0.008847403340041637, -0.003196818521246314, 0.005271779838949442, 0.013095562346279621, 0.024364804849028587, -0.0338343121111393, -0.014856713823974133, -0.03200322389602661, -0.014162871055305004, 0.021883759647607803, -0.033684950321912766, -0.03180960565805435, 0.020903239026665688, -0.02084033191204071, 0.02636501006782055, 0.011389082297682762, 0.009211891330778599, 0.02859390899538994, -0.032886162400245667, 0.02632163278758526, 0.011716010980308056, -0.023828530684113503, 0.008765440434217453, -0.009900763630867004, -0.014303271658718586, -0.003849538043141365, -0.01682935282588005, 0.031235303729772568, 0.03073936328291893, -0.0038099163211882114, -0.031670596450567245, -0.002184838056564331, 0.0023596584796905518, 0.02387217991054058, 0.0011567750480026007, 0.010406563058495522, 0.009497765451669693, -0.020233606919646263, -0.022115619853138924, -0.03187549486756325, -0.0002201367460656911, 0.011127427220344543, -0.0024651605635881424, 0.034746650606393814, -0.006727167405188084, -0.02322372980415821, 0.006025470793247223, -0.00999689195305109, -0.004848603159189224, 0.03463902324438095, -0.0010006207739934325, 0.031213227659463882, 0.004781482275575399, -0.013278824277222157, 0.026184262707829475, -0.02034388855099678, 0.00118167488835752, 0.008027642965316772], [0.01602979376912117, -0.03295212611556053, 0.0017519892426207662, -0.009247133508324623, 0.0231559406965971, 0.012015854008495808, 0.014314179308712482, 0.021473566070199013, -0.00799575075507164, -0.002288196934387088, 0.02865191549062729, -0.028785327449440956, -0.024721957743167877, 0.0025663194246590137, -0.014180288650095463, 0.002013418124988675, 0.031548574566841125, -0.004140130244195461, -0.030451234430074692, -0.01623491384088993, 0.03279881551861763, -0.007846049033105373, -0.01565992459654808, 0.016075948253273964, 0.00442129373550415, -0.031488556414842606, 0.02974238246679306, 0.020111599937081337, 0.031042326241731644, 0.015628546476364136, -0.012041212059557438, -0.01165883056819439, 0.017275553196668625, -0.006973344832658768, 0.0069273835979402065, -0.034705668687820435, -0.017781900241971016, 0.013098831288516521, -0.0019737021066248417, -0.01743234694004059, -0.03143073618412018, 0.022417858242988586, -0.007468430791050196, -0.03535928949713707, 0.03419299051165581, 0.017140543088316917, -0.0215617548674345, -0.026226771995425224, 0.03437088057398796, 6.0509431932587177e-05, -0.021546432748436928, 0.020516399294137955, -0.0074392519891262054, 0.002446536673232913, -0.01860477402806282, -0.030249813571572304, -0.023718668147921562, -0.003921534400433302, -0.025888055562973022, 0.03515717759728432, 0.0003179200866725296, -0.013765926472842693, 0.013955126516520977, -0.03190707787871361, -0.018595470115542412, 0.012952025048434734, -0.03094787709414959, 0.017045531421899796, 0.0021063361782580614, -0.030807673931121826, -0.03658164665102959, 0.010077979415655136, 0.015675552189350128, -0.008273274637758732, -0.032610200345516205, -0.02145358920097351, 0.0031194365583360195, 0.0008129322668537498, 0.008805233053863049, 0.00611083535477519, -0.0019858183804899454, 0.018784301355481148, 0.03464334458112717, 0.02974334917962551, 0.03245271369814873, -0.012053689919412136, -0.012233019806444645, -0.004021449480205774, 0.010438424535095692, 0.014262988232076168, -0.0013222080888226628, -0.016374608501791954, -0.015658460557460785, 0.042033515870571136, -0.004239191766828299, -0.004004964139312506, -0.022005537524819374, -0.01968468353152275, 0.005671074613928795, 0.012763412669301033, -0.016387907788157463, -0.015278946608304977, 0.026195257902145386, -0.020387358963489532, -0.028004180639982224, -0.00649966299533844, 0.03331885114312172, 0.007356918416917324, 0.004675582982599735, -0.004580809734761715, 0.0222652368247509, -0.01770181767642498, 0.02421467751264572, 0.008404601365327835, 0.003908335231244564, 0.0047879889607429504, -0.022235728800296783, 0.026100782677531242, 0.020582174882292747, -0.020446589216589928, -0.028695987537503242, -0.003810151945799589, 0.02807506173849106, -0.014403845183551311, 0.03566710650920868, -0.01590324379503727, -0.03131471946835518, 0.01644842140376568, -0.02115383744239807, -0.005438229069113731, -0.011900841258466244, -0.0025128417182713747, -0.03080715984106064, -0.031183458864688873, 0.017437975853681564, -0.0036514888051897287, -0.02316475473344326, -0.002763122320175171, -0.03273191303014755, 0.009433702565729618, 0.01696082204580307, 0.034603748470544815, -0.029193291440606117, -0.0045214067213237286, 0.018924009054899216, 0.03194025903940201, -0.024878116324543953, 0.02219153381884098, 0.023538989946246147, 0.029755059629678726, -0.0184903834015131, 0.03288203105330467, -0.009150367230176926, -0.016012700274586678, 0.010544263757765293, 0.032298631966114044, -0.019537625834345818, 0.023472268134355545, 0.00014592226943932474, 0.016122937202453613, 0.03371046856045723, 0.014882952906191349, -0.026836516335606575, -0.006028412375599146, 0.005479793529957533, -0.03135978803038597, 0.005650146398693323, -0.019243523478507996, -0.007099186070263386, 0.012732983566820621, -0.028872452676296234, -0.023249326273798943, 0.015590103343129158, -0.03648316115140915, 0.023409726098179817, -0.02450595796108246, 0.004264796152710915, 0.011798758059740067, 0.020328670740127563, -0.016783377155661583, 0.010040583088994026, 0.01953132636845112, 0.03472938388586044, -0.024504974484443665, -0.014667993411421776, 0.014408211223781109, 0.0023153035435825586, -0.02091471664607525, -0.02410777471959591, -0.02471969649195671, -0.021585647016763687, -0.011292903684079647, -0.026346050202846527, -0.032231029123067856, 0.0023680096492171288, 0.020811889320611954, -0.01687154918909073, 0.0034579727798700333, -0.0006719442317262292, 0.030500618740916252, -0.01864141784608364, 0.005082724150270224, 0.03631361201405525, 0.028829950839281082, -0.029291903600096703, -0.000334631564328447, 0.006739895325154066, -0.005437375977635384, -0.017919212579727173, -0.020063702017068863, 0.027416784316301346, -0.009051810950040817, -0.0006504024495370686, 0.013074532151222229, -0.02042495831847191, 0.005621714051812887, 0.026897165924310684, -0.012232016772031784, 0.01520736888051033, -0.0011806549737229943, 0.0179299246519804, 0.022677024826407433, 0.008982324041426182, 0.0009461603476665914, -0.03078441694378853, 0.014064625836908817, 0.021397806704044342, -0.008054192177951336, -0.02718396671116352, 0.03535023331642151, -0.002691874047741294, 0.010745163075625896, -0.006339488551020622, 0.026253752410411835, 0.03749588876962662, 0.02536730468273163, -0.00988012459129095, 0.026215041056275368, 0.018098361790180206, 0.004911206662654877, -0.028026577085256577, -0.013314458541572094, -0.0319446437060833, 0.02640410140156746, 0.04034576937556267, 0.026687752455472946, 0.01583845727145672, 0.007068394683301449, 0.03266170248389244, -0.019160723313689232, -0.012476946227252483, -0.03218789026141167, -0.0035967419389635324, 0.002254115417599678, 0.009321166202425957, -0.017915992066264153, 0.006482214666903019, -0.023474184796214104, -0.024636277928948402, 0.006490031257271767, -0.03389259800314903, 0.009896124713122845, -0.034416504204273224, -0.02669915184378624, -0.009626314975321293, -0.03653605654835701, 0.02742147631943226, 0.029262101277709007, -0.018790140748023987, 0.010980903171002865, 0.023109301924705505, 0.013859824277460575, -0.00018954275583382696, -0.02864144556224346, 0.028021957725286484, -0.03383229300379753, -0.008194874040782452, 0.0012985672801733017, -0.012185719795525074, -0.013192352838814259, -0.030928093940019608, 0.0017686104401946068, -0.004511675331741571, 0.04067044332623482, -0.006361088715493679, 0.02980038896203041, 0.0012819115072488785, -0.01853523775935173, -0.012594368308782578, -0.007902242243289948, -0.005288103129714727, -0.012531337328255177, 0.0046026213094592094, 0.02760901302099228, 0.006784440483897924, 0.016032107174396515, 0.026169121265411377, 0.014904518611729145, 0.01978808082640171, 0.021036600694060326, 0.036349084228277206, -0.031818680465221405, 0.009991996921598911, -0.0039695617742836475, -0.007810487411916256, -0.01447540894150734, 0.021137995645403862, 0.032556623220443726, -0.029207898303866386, 0.01911742426455021, 0.02422245591878891, 0.017568008974194527, 0.006104008294641972, 0.028032107278704643, -0.0018806785810738802, -0.013123552314937115, -0.00833190605044365, 0.006040637847036123, 0.004030758049339056, -0.004725988022983074, 0.011367406696081161, 0.012769634835422039, -0.02303168922662735, 0.016649074852466583, 0.029338868334889412, 0.008182386867702007, -0.0024831502232700586, 0.027637872844934464, -0.032986246049404144, -0.0188745204359293, -0.019352160394191742, 0.028616027906537056, -0.03585701063275337, 0.0030048799235373735, -0.034847136586904526, -0.0012577860616147518, 0.013269349932670593, -0.008491327986121178, 0.0343565009534359, 0.001634445390664041, -0.018312353640794754, 0.007248579058796167, 0.015503044240176678, -0.004511196631938219, 0.024590734392404556, -0.025879453867673874, 0.014632098376750946, 0.0209841039031744, 0.021737821400165558, 0.009057421237230301, 0.019454477354884148, -0.02055823616683483, -0.023724893108010292, -0.0008861120440997183, -0.007723969407379627, 0.023573677986860275, 0.02122720144689083, 0.02015647478401661, -0.01945125311613083, -0.030262919142842293, -0.03484432026743889, 0.012455791234970093, -0.032366033643484116, -0.035732004791498184, -0.018081936985254288, -0.030249852687120438, -0.014296394772827625, -0.022972561419010162, -0.01939648762345314, 0.03188173100352287, -0.009986708872020245, 0.024926435202360153, -0.0053067877888679504, -0.007898528128862381, -0.008774381130933762, -0.01819578930735588, -0.01704474352300167, 0.036818716675043106, -0.001605212572030723, -0.028880121186375618, 0.03434956446290016, -0.0020921414252370596, -0.027608996257185936, -0.03244883939623833, -0.03520294651389122, -0.03533163666725159, 0.029216011986136436, 0.022329654544591904, 0.0014874335611239076, -0.03095249831676483, -0.009531745687127113, -0.03360946476459503, 0.012275023385882378, -0.009547182358801365, -0.007799969054758549, -0.011579951271414757, 0.015629185363650322, 0.01709507592022419, 0.004361642058938742, -0.009124070405960083, -0.008298927918076515, -0.0014829549472779036, -0.02150011621415615, 0.04244377464056015, -0.005218567792326212, 0.031180530786514282, -0.012164078652858734, 0.0045664929784834385, 0.012851315550506115, -0.032826222479343414, 0.014549849554896355, -0.02829134464263916, 0.0021961312741041183, -0.01081192959100008, 0.017262626439332962, 0.0323285348713398, 0.006537432782351971, -0.0016208488959819078, -0.01790129579603672, 0.01325945183634758, -0.01722828298807144, 0.014718655496835709, -0.015639422461390495, 0.023770969361066818, 0.02618173323571682, 0.0194985494017601, -0.0033739430364221334, 0.013334479182958603, -0.03556372597813606, 0.03020273894071579, -0.007093830965459347, 0.01651706174015999, -0.002009141258895397, -0.009224123321473598, -0.015367314219474792, 0.024820633232593536, -0.017130836844444275, -0.002702865516766906, 0.02241387404501438, 0.004716870374977589, -0.030186213552951813, -0.03746281936764717, -0.02008211240172386, 0.0305155161768198, -0.02692100591957569, 0.01901310868561268, 0.025317421182990074, -0.014882370829582214, -0.015804369002580643, -0.025755641981959343, 0.005378773435950279, -0.00551448343321681, 0.0003789770125877112, 0.01292169839143753, 0.011716359294950962, -0.014576675370335579, -4.104989784536883e-05, 0.007761779241263866, 1.1378148883522954e-05, 0.0061000618152320385, -0.016187740489840508, 0.02663927897810936, -0.006968837231397629, -0.004138915799558163, -0.02960185892879963, -0.0198788084089756, 0.010110876522958279, -0.0003485329507384449, -0.015806609764695168, 0.017491869628429413, -0.006418218836188316, 0.010183077305555344, 0.028576873242855072, -0.017143970355391502, -0.017863092944025993, -0.00726274261251092, -0.0030243226792663336, -0.017934871837496758, -0.00879739411175251, -0.00166529999114573, 0.014484411105513573, 0.030331898480653763, 0.022901805117726326, 0.00026106153381988406, -0.006559785921126604, 0.005366834811866283, -0.005357998888939619, -0.009493202902376652, 0.007359005976468325, -0.03448159247636795, -0.03568510338664055, -0.0042887283489108086, -0.01116486918181181, -0.01119131688028574, -0.022867931053042412, 0.03307386487722397, 0.0023117067757993937, -0.016843292862176895, -0.015369383618235588, 0.007123902905732393, -0.027353858575224876, 0.0015355495270341635, -0.000740206683985889, 0.012068555690348148, 0.014120249077677727, -0.023395776748657227, 0.01512900646775961, 0.03247136250138283, 0.004046255256980658, 0.016423478722572327, -0.01682724803686142, 0.003049353137612343, 0.005754187237471342, -0.02116306684911251, 0.016617096960544586, -0.03943174332380295, -0.019554106518626213, -0.028338667005300522, -0.02851157821714878, -0.028114382177591324, -0.036399517208337784, 0.013524160720407963, 0.004322964698076248, -0.01995185762643814, 0.0037506893277168274, -0.001876774593256414, 0.017133263871073723, -0.030102044343948364, -0.01140821073204279, 0.006617906037718058, 0.014868032187223434, 0.0026168017648160458, 0.009646165184676647, 0.03561294823884964, -0.012711772695183754, 0.02954886108636856, 0.03279588744044304, -0.03095093183219433, 0.009277886711061, 0.019191589206457138, -0.007957681082189083, 0.017777547240257263, -0.0019169820006936789, 0.023253202438354492, -0.003961089067161083, -0.028223887085914612, 0.02146371454000473, 0.009186146780848503, 0.03409958630800247, 0.01909889467060566, 0.030313614755868912, 0.031666386872529984, 0.008557964116334915, -0.004092424176633358, 0.010464400984346867, -0.026810763403773308, 2.3383786356134806e-06, -0.012153787538409233, 0.002005749847739935, -0.028344566002488136, 0.021822240203619003, -0.033036623150110245, 0.023738790303468704, 0.030049649998545647, -0.02676287852227688, 0.03717959672212601, -0.02187410555779934, -0.005358808673918247, 0.017017798498272896, -0.01235592644661665, 0.02942739613354206, -0.01848546415567398, -0.007736679166555405, -0.023336010053753853, -0.0136188929900527, 0.03980592265725136, 0.03412570804357529, 0.013440025970339775, 0.013795743696391582, -0.025256764143705368, 0.029419995844364166, -0.002319899620488286, -0.012565425597131252, -0.030038654804229736, 0.02831573784351349, 0.016362052410840988, 0.021284811198711395, 0.0036516760010272264, -0.024267302826046944, 0.014549169689416885, 0.01335158385336399, 0.030091967433691025, 0.009973379783332348, -0.0040326244197785854, 0.04006573185324669, 0.020459523424506187, -0.007870608009397984, 0.0076675801537930965, -0.0037328344769775867, 0.002209905767813325, 0.025546515360474586, -0.02176487073302269, 0.03854868933558464, 0.03090568445622921, 0.007953491061925888, -0.005390682257711887, 0.012473651207983494, -0.02126493863761425, 0.023500677198171616, -0.01790902204811573, 0.007101112511008978, -0.036417122930288315, 0.016267510131001472, 0.02374422363936901, 0.026634886860847473, 0.0028824894689023495, 0.02105441689491272, 0.012129085138440132, 0.027850940823554993, 0.04033082723617554, -0.0028270420152693987, 0.02306339703500271, 0.002983224345371127, -0.0060918075032532215, 0.03470473736524582, 0.0021221223287284374, 0.013124796561896801, 0.02938048355281353, 0.029508596286177635, 0.025058021768927574, -0.0001145459245890379, -0.027141913771629333, -0.030297648161649704, 0.013152800500392914, 0.0002428576408419758, -0.020793108269572258, 0.015216084197163582, 0.03135351464152336, 0.019338147714734077, -0.005980926565825939, 0.004222724586725235, -0.02309924177825451, 0.01675199717283249, -0.027709534391760826, 0.0246568713337183, -0.016345027834177017, -0.01435460988432169, -0.021107206121087074, 0.008445944637060165, 0.009211956523358822, -0.0052321129478514194, 0.034232545644044876, 0.028472576290369034, -0.027549155056476593, -0.0002587980416137725, 0.015277685597538948, 0.03727618604898453, -0.006235143169760704, 0.023176444694399834, -0.0011587577173486352, -0.012615548446774483, 0.020608939230442047, -0.03208327665925026, 0.031037108972668648, 0.033906444907188416, -0.011067484505474567, 0.013172471895813942, 0.034981925040483475, 0.010393121279776096, 0.013789656572043896, 0.013030143454670906, -0.0146116241812706, 0.008717796765267849, -0.019034773111343384, 0.030413521453738213, -0.01554869394749403, 0.007669881451874971, -0.006002603564411402, 0.021932799369096756, 0.002249558223411441, 0.019548920914530754, -0.011873568408191204, -0.022524835541844368, 0.011442451737821102, -0.02317287027835846, -0.03237380087375641, 0.012512009590864182, -0.023202400654554367, -0.014192838221788406, -0.008570527657866478, 0.0026508516166359186, -0.013118542730808258, -0.014102399349212646, -0.009843961335718632, 0.024422215297818184, 0.010293052531778812, -0.017408739775419235, -0.024778762832283974, 0.0007892902358435094, 0.011441614478826523, -0.000747357145883143, 0.020906798541545868, 0.029986167326569557, 0.010376413352787495, 0.011536944657564163, 0.020276060327887535, -0.012980079278349876, 0.0052286237478256226, 0.027354620397090912, -0.019034098833799362, 0.00047748483484610915, -0.016520285978913307, -0.030141059309244156, 0.016247373074293137, 0.025996262207627296, -0.021613622084259987, 0.011331986635923386, 0.009195160120725632, 0.012529449537396431, 0.01856105774641037, 0.032533980906009674, 0.026548193767666817, -0.03164331987500191, -0.01424526609480381, 0.018831439316272736, -0.020443333312869072, 0.006979911122471094, -0.015310858376324177, 0.0070932297967374325, 0.017426449805498123, 0.011225423775613308, 0.025911448523402214, -0.004421926103532314, 0.019118644297122955, 0.011085104197263718, -0.011939228512346745, -0.02615765854716301, 0.03151879832148552, -0.012002101168036461, 0.025387205183506012, 0.02092350833117962, -0.003016081405803561, -0.030994264408946037, 0.00153228803537786, -0.018449265509843826, 0.008275910280644894, -0.015006152912974358, 0.026898128911852837, -0.032680708914995193, -0.009933728724718094, 0.005437964573502541, 0.0032954993657767773, 0.02928806096315384, -0.011317209340631962, -0.028509095311164856, 0.023645831272006035, 0.009979644790291786, 0.023526538163423538, -0.021137697622179985, -0.020976625382900238, -0.014473247341811657, 0.0024662420619279146, 0.011972030624747276, -0.020709266886115074, -0.0035892147570848465, -0.006443976890295744, 0.0322222039103508, -0.013277130201458931, 0.034160319715738297, -0.022388489916920662, -0.01523528154939413, -0.027350975200533867, 0.02586892619729042, -0.024926742538809776, 0.014496371150016785, -0.01332730334252119, 0.03544379398226738, 0.004945157561451197, -0.03108745813369751, 0.006100180558860302, 0.004342117812484503, -0.034543152898550034, 0.007167522795498371, 0.03407485410571098], [0.010277722962200642, -0.00018993021512869745, -0.007403650786727667, 0.009490719996392727, -0.015911269932985306, 0.03517019376158714, 0.030873509123921394, 0.016684528440237045, -0.013302807696163654, -0.03353410214185715, -0.020559746772050858, 0.03472481295466423, -0.03279060870409012, -0.03411249816417694, -0.0025825994089245796, 0.011354206129908562, -0.03554615005850792, -0.033157914876937866, 0.00019417065777815878, -0.011979789473116398, 0.024881428107619286, 0.010253962129354477, -0.031000807881355286, -0.03218961879611015, 0.024526847526431084, -0.006332895718514919, -0.01562347263097763, 0.011249316856265068, -0.007019111420959234, 0.017080266028642654, 0.009056789800524712, -0.015463344752788544, -0.028633035719394684, 0.019320663064718246, -0.02147688716650009, -0.003975844942033291, 0.004850028548389673, -0.020827949047088623, 0.019399119541049004, -0.025189213454723358, 0.008699367754161358, 0.003746764035895467, 0.013029222376644611, -0.035120438784360886, 0.001994588179513812, 0.01734885759651661, -0.022916752845048904, 0.008795630186796188, 0.00010350070078857243, 0.030275197699666023, -0.007579803932458162, 0.00023483464610762894, -0.015533477999269962, -0.008801890537142754, 0.010224181227385998, -0.03444446250796318, 0.02709312178194523, 0.025682182982563972, 0.015116331167519093, 0.02672441676259041, -0.011135200969874859, 0.00811058096587658, 0.001775427721440792, -0.02475958690047264, -0.013815367594361305, -0.012799014337360859, -0.008987043052911758, -0.03190808743238449, -0.025350123643875122, -0.003658751957118511, -0.005728451535105705, -0.032733675092458725, 0.00731787970289588, 0.019151756539940834, 0.02947591431438923, 0.02983136475086212, -0.02513161674141884, -0.011572123505175114, -0.017030227929353714, 0.006497346330434084, 0.009540732949972153, 0.007929560728371143, 0.020870370790362358, 0.01884206011891365, -0.019169531762599945, 0.02451721392571926, 0.024080518633127213, 0.00470770662650466, -0.031102744862437248, -0.021954713389277458, 0.0096591180190444, 0.011518189683556557, 0.03194618225097656, 0.017086537554860115, 0.011983443051576614, -0.0018292302265763283, 0.02374209649860859, -0.013513508252799511, 0.013977240771055222, -0.017602184787392616, -0.0009227354312315583, 0.020552808418869972, 0.01789962872862816, -0.004318502265959978, 0.00015432739746756852, -0.020067136734724045, 0.01637011580169201, 0.023923922330141068, 0.012226337566971779, -0.034594159573316574, -0.025579756125807762, 0.02390914037823677, -0.005113729741424322, 0.021924683824181557, 0.026309020817279816, -0.010495124384760857, -0.021008852869272232, -0.03371003270149231, 0.013237143866717815, 0.017219798639416695, -0.007142661605030298, -0.03592066839337349, -0.02433071844279766, -0.0033188185188919306, 0.014761907048523426, -0.013688750565052032, -0.02483302168548107, -0.026693787425756454, 0.0301811546087265, 0.011576191522181034, -0.0281501617282629, -0.021053791046142578, -0.03119850344955921, 0.0042028725147247314, -0.015296674333512783, 0.0035741040483117104, 0.006766310892999172, -0.012357788160443306, -0.03195009380578995, -0.027713071554899216, -0.014957518316805363, 0.005546356551349163, -0.016821010038256645, -0.0013225828297436237, -0.00439691636711359, 0.03245683014392853, -0.016766633838415146, 0.0322808176279068, -0.029170764610171318, -0.03177676349878311, 0.00956585630774498, -0.023350464180111885, 0.015523708425462246, -0.02282652258872986, 0.02515985444188118, 0.03282158076763153, -0.0008626201888546348, 0.004792365711182356, 0.032195352017879486, 0.019917765632271767, -0.03217117488384247, 0.002142932265996933, -0.023485315963625908, 0.03163619339466095, -0.0009419310954399407, 0.006884627044200897, -0.022017117589712143, -0.019436951726675034, 0.004635019227862358, 0.02945554070174694, -0.01798536628484726, 0.0032915950287133455, 0.03214716911315918, 0.03170625865459442, -0.0074822744354605675, 0.03232290968298912, 0.011345640756189823, 0.030530506744980812, -0.00158919848036021, -0.03318656235933304, -0.012993203476071358, 0.00714557571336627, 0.015304142609238625, -0.03839720040559769, 0.023898955434560776, -0.03493740037083626, 0.019064774736762047, 0.03350645676255226, 0.008251388557255268, -0.003516566939651966, 0.025213714689016342, -0.008544881828129292, -0.026265108957886696, -0.02557995356619358, 0.016683174297213554, 0.02724132314324379, 0.001437669270671904, -0.03465765714645386, -0.03515331447124481, -0.009167041629552841, 0.018541494384407997, -0.02452090196311474, 0.008731651119887829, -0.020743858069181442, 0.02715413272380829, -0.011633232235908508, -0.010431270115077496, -0.03481939062476158, -0.03582695126533508, -0.0016966707771643996, 0.0015598481986671686, 0.015416941605508327, -0.035102102905511856, 0.0038071870803833008, -0.007048976141959429, 0.019224707037210464, -0.015904035419225693, 0.01316874660551548, 0.016027111560106277, 0.017379598692059517, -0.012693000957369804, 0.011219377629458904, -0.00712738698348403, 0.0095825819298625, -0.021971335634589195, -0.028419209644198418, -0.02931145578622818, -0.023019542917609215, -0.015971655026078224, 0.004408387467265129, -0.009042132645845413, -0.02176613174378872, -0.0016189224552363157, -0.013707585632801056, 0.019124271348118782, -0.03281185030937195, -0.016693593934178352, -0.026499571278691292, 0.0009264784748665988, -0.0015846927417442203, -0.00547173572704196, 0.03320763260126114, -0.01485764142125845, -0.005982184316962957, 0.010580208152532578, 0.031785376369953156, 0.025829602032899857, 0.0032694574911147356, -0.013957994058728218, 0.011458959430456161, 0.02234448306262493, -0.0007935663452371955, 0.019592713564634323, 0.029178492724895477, -0.0192528385668993, -0.00839997362345457, -0.03322397172451019, 0.007239209022372961, 0.024222727864980698, -0.008365620858967304, 0.003829726716503501, 0.008998963981866837, -0.003453199751675129, 0.024970768019557, 0.00345452968031168, -0.03760295733809471, -0.03217102214694023, -0.038152944296598434, -0.0005552589427679777, 0.017916278913617134, -0.005872873589396477, 0.03313981369137764, -0.004852821584790945, 0.006290154531598091, 0.03055509179830551, 0.017423449084162712, -0.0015499253058806062, 0.03416268527507782, -0.02144801616668701, 0.01326901838183403, 0.02253897301852703, -0.022165732458233833, -0.03366655111312866, 0.010838904418051243, -0.014145162887871265, -0.018687579780817032, 0.0061627160757780075, -0.027121763676404953, 0.030556846410036087, -0.005334112327545881, -0.01348757091909647, 0.03119620308279991, 0.012940935790538788, 0.007076503708958626, -0.019264617934823036, 0.03125850111246109, -0.012424350716173649, 0.02903802879154682, -0.0023758201859891415, 0.019212862476706505, 0.025291355326771736, -0.028334518894553185, -0.02484455332159996, -0.0359269343316555, 0.025396646931767464, 0.03053039126098156, -0.013139094226062298, -0.017521817237138748, 0.005962162744253874, 0.019181525334715843, 0.008710538037121296, -0.008064775727689266, -0.023274077102541924, 0.029948987066745758, -0.023892562836408615, -0.03560560196638107, -0.015738818794488907, 0.005664752330631018, 0.014994820579886436, 0.017183806747198105, -0.018437687307596207, -0.014685430563986301, -0.018336566165089607, -0.020212937146425247, -0.030640896409749985, 0.008263535797595978, -0.009074557572603226, -0.03376272693276405, -0.022378092631697655, -0.022787198424339294, -0.016239464282989502, -0.0226505845785141, -0.006534673739224672, 0.012659147381782532, -0.028969286009669304, -0.003081104252487421, -0.010289295576512814, -0.018295424059033394, -0.008011494763195515, -0.015366237610578537, 0.000826657225843519, -0.026289677247405052, 0.005975258070975542, 0.03163715824484825, 0.028321271762251854, -0.014423755928874016, 0.013963879086077213, -0.03218364343047142, 0.029546299949288368, -0.03739418461918831, -0.03527215123176575, -0.03414298593997955, -0.03228778764605522, 0.006496524903923273, -0.008614175952970982, 0.0074349152855575085, -0.0036041894927620888, -0.0018311906605958939, -0.013706248253583908, -0.021767236292362213, -0.030251162126660347, 0.01789887621998787, -0.01846219040453434, -0.00728428503498435, 0.01733776368200779, -0.008870037272572517, -0.009062428027391434, -0.023935716599225998, -0.030836071819067, 0.016603320837020874, -0.008903607726097107, 0.02162126637995243, 0.0040418594144284725, 0.003421144327148795, -0.03056873008608818, 0.0006458507850766182, -0.00894902367144823, -0.02271023392677307, -0.010683700442314148, 0.0025624032132327557, -0.024194924160838127, 0.0066130212508141994, 0.024524174630641937, 0.006090988405048847, 0.03406940773129463, 0.015622859820723534, -0.02897188812494278, -0.014653773978352547, -0.00896675605326891, 0.010550128296017647, -0.0010681349085643888, 0.02872367575764656, 0.0041402652859687805, -0.022634947672486305, -0.013134279288351536, -0.02982630394399166, -0.010137219913303852, 0.016978230327367783, -0.0003119118046015501, -0.03197075054049492, -0.027817942202091217, 0.01567971147596836, -0.03032582812011242, -0.02769715152680874, -0.021452313289046288, 0.03183020278811455, -0.011193996295332909, -0.011986557394266129, -0.02163255214691162, 0.024110380560159683, -0.006088848691433668, 0.005994497332721949, 0.0077017550356686115, 0.00896693766117096, 0.022026656195521355, 0.0012345947325229645, 0.003301649820059538, -0.0024754051119089127, -0.027806127443909645, -0.0081877326592803, 0.03398130461573601, -0.025320274755358696, -0.022581133991479874, -0.03555784001946449, 0.0018507284112274647, -0.03402797132730484, -0.01745881699025631, 0.0363556444644928, 0.017524464055895805, 0.02024022676050663, 0.00814699288457632, -0.02844693697988987, -0.01644345000386238, -0.029167668893933296, -0.02007908932864666, 0.01528600137680769, -0.007694132626056671, 0.034712597727775574, -0.027285834774374962, -0.0320858508348465, 0.03459158167243004, -0.03205912932753563, 0.029453855007886887, 0.00898737646639347, -0.032948512583971024, 0.030932307243347168, -0.009787271730601788, -0.014746828004717827, -0.027869177982211113, -0.0302247554063797, 0.007901841774582863, -0.03521624207496643, 0.014323677867650986, -0.009492781944572926, 0.013604767620563507, -0.0072363605722785, 0.013651678338646889, -0.0007359167211689055, 0.011958043090999126, -0.01401987299323082, -0.024813510477542877, 0.005638930946588516, -0.01901571825146675, -0.019506243988871574, -0.03285789117217064, -0.012740722857415676, -0.026659851893782616, 0.025890180841088295, 0.02428310550749302, 0.007051574531942606, 0.02814936637878418, 0.016579488292336464, -0.03403432294726372, -0.003761557163670659, -0.005871381610631943, -0.021706756204366684, 0.010171818546950817, -0.011165584437549114, -0.017135726287961006, -0.0005814922042191029, -0.024144219234585762, 0.02885519526898861, 0.022692140191793442, 0.033742766827344894, -0.006882539950311184, 0.011684210039675236, -0.0009681611554697156, -0.02968946471810341, 0.01706746593117714, -0.020809445530176163, -0.009179568849503994, -0.015500727109611034, -0.037319134920835495, -0.0024166149087250233, 0.001995671773329377, -0.005994402337819338, 0.024006178602576256, 2.112801666953601e-05, -0.007588483858853579, -0.020068533718585968, -0.021588195115327835, -0.005274464376270771, -0.021038733422756195, -0.02358519658446312, -0.004735985770821571, -0.006321716587990522, -0.021876677870750427, 0.019833683967590332, 0.029386207461357117, -0.02522844448685646, 0.014609025791287422, -0.01783491112291813, -0.005142680834978819, 0.033083539456129074, 0.004522842355072498, -0.03335164114832878, 0.03671499341726303, 0.003570261411368847, -0.015458634123206139, -0.02059895545244217, 0.02774449996650219, -0.003307283390313387, 0.015716077759861946, 0.020074879750609398, -0.01603514514863491, 0.0013216646621003747, -0.02428811974823475, 0.029270753264427185, -0.019238973036408424, 0.023531682789325714, 0.00897856056690216, 0.02200891636312008, -0.025171609595417976, -0.0011335996678099036, 0.018417419865727425, -0.002464048098772764, -0.001495026284828782, 0.0162154883146286, -0.02820545993745327, -0.008781936950981617, 0.014513994567096233, 0.01631982810795307, 0.03305943310260773, -0.004896550439298153, 0.01330529898405075, -0.014290603809058666, -0.006512180902063847, -0.021215658634901047, 0.022571075707674026, -0.0041023362427949905, 0.010528098791837692, 0.01644992083311081, 0.004785085562616587, 0.00222924561239779, -0.0036439085379242897, -0.030748503282666206, 0.005437895655632019, -0.00808753352612257, -0.03008439391851425, 0.0332568995654583, -0.0038074427284300327, -0.017846908420324326, -0.0363495759665966, -0.034272871911525726, 0.0120679447427392, -0.01803262159228325, -0.017457371577620506, -0.022680627182126045, 0.026815403252840042, -0.010867058299481869, 0.022324353456497192, 0.03083837777376175, -0.0241831187158823, 0.026483800262212753, -0.010493136942386627, 0.029941892251372337, 0.013912656344473362, -0.03882727399468422, 0.0029690228402614594, 0.010180899873375893, -0.014548775739967823, 0.02586870640516281, -0.030383741483092308, -0.011752194724977016, 0.03375746309757233, 0.03473137691617012, 0.017781848087906837, -0.021331556141376495, -0.030737096443772316, -0.029059113934636116, -0.010633259080350399, 0.017446940764784813, 0.008161928504705429, -0.007020262070000172, 0.029363565146923065, 0.025181977078318596, -0.019759299233555794, -0.017752937972545624, 2.4525024855392985e-05, 0.009464854374527931, 0.0001438628969481215, 0.010655687190592289, 0.020120659843087196, -0.010825518518686295, 0.013506801798939705, 0.0012752668699249625, 0.011193199083209038, 0.01303647831082344, -0.010630598291754723, -0.0167244840413332, 0.014712032862007618, -0.02319866232573986, 0.018533166497945786, -0.023027367889881134, 0.02445668913424015, 0.01432148739695549, -0.008757936768233776, 0.020401567220687866, -0.012540874071419239, 0.0047213416546583176, 0.00630906829610467, 0.0003392044745851308, 0.004064156673848629, -0.0036921792197972536, -0.013359864242374897, 0.01842978596687317, 0.015480236150324345, 0.01502093393355608, 0.02203802391886711, -0.0226245429366827, -0.012374629266560078, -0.004549181554466486, 0.025872517377138138, -0.030652949586510658, -0.022058583796024323, -0.009751270525157452, -0.03127049282193184, -0.028743205592036247, 0.02410772256553173, 0.0014211584348231554, -0.028887972235679626, -0.0059797996655106544, -0.001201417064294219, -0.01270552072674036, -0.029873164370656013, 0.0194285586476326, -0.004460438620299101, 0.03363531827926636, -0.02979363314807415, -0.02171984687447548, -0.004110135603696108, -0.02719065174460411, 0.024604683741927147, 0.029379844665527344, 0.03464828059077263, -0.023248175159096718, 0.02224503830075264, 0.021688401699066162, -0.01701064221560955, 0.001516808639280498, 0.015014702454209328, 0.02418675273656845, -0.03448309749364853, 0.034594323486089706, -0.009460052475333214, 0.014209635555744171, -0.022424720227718353, -0.027647975832223892, -0.024284152314066887, 0.02100241370499134, -0.01763846166431904, 0.020761091262102127, 0.010796935297548771, 0.014206312596797943, -0.007965384051203728, -0.011360794305801392, -0.016838474199175835, -0.020794648677110672, 0.03194470703601837, -0.0028683010023087263, -0.01608344353735447, -0.030279243364930153, 0.004732068628072739, -0.036593273282051086, -0.0019011354306712747, 0.02107285149395466, -0.02212497591972351, 0.018339093774557114, -0.012542818672955036, -0.028497537598013878, -0.036164455115795135, 0.01721995137631893, -0.027649084106087685, 0.017213117331266403, 0.004956113174557686, 0.01930641569197178, -0.026901835575699806, 0.031208043918013573, -0.03558247536420822, -0.02710840292274952, 0.021417418494820595, 0.001213784795254469, -0.020068714395165443, -0.007515260484069586, -0.03184613212943077, -0.0311978068202734, -0.007855887524783611, 0.026957347989082336, 0.010271143168210983, 0.006232916377484798, -0.010063240304589272, 0.03184190019965172, -0.00035391186247579753, 0.011365680024027824, -9.243751264875755e-05, 0.0049706147983670235, 0.011376237496733665, 0.026950256898999214, 0.020189719274640083, 0.0042853825725615025, 0.01406855694949627, -0.010885586030781269, 0.024309992790222168, 0.009962229058146477, 0.026917412877082825, -0.005590522196143866, -0.029168376699090004, 0.007055202033370733, 0.01452561840415001, 0.028857888653874397, 0.013842545449733734, 0.013187085278332233, 0.028389345854520798, -0.012343637645244598, 0.031413424760103226, 0.018132902681827545, 0.023609068244695663, 0.025170961394906044, -0.029529759660363197, 0.018208926543593407, 0.03284946829080582, -0.02549988403916359, -0.003448992967605591, -0.022144993767142296, -0.008931544609367847, 0.005058146547526121, 0.018893461674451828, -0.010531729087233543, -0.03393761068582535, 0.01920146867632866, 0.019986387342214584, -0.006503515876829624, 0.030560540035367012, 0.027523450553417206, -0.007871637120842934, 0.0013791535748168826, 0.006291083060204983, -0.006998530589044094, -0.00879870168864727, -0.01612141728401184, -0.020322326570749283, 0.017817245796322823, -0.010638799518346786, -0.017181795090436935, 0.031401656568050385, 0.0056396592408418655, 0.025673890486359596, 0.03244304656982422, -0.0051477886736392975, 0.005201613996177912, 0.03297736495733261, -0.0246996209025383, -0.010822870768606663, 0.0049868240021169186, -0.0024974995758384466, 0.00945561658591032, 0.01874169334769249, -0.014717566780745983, 0.002762039192020893, 0.03229917958378792, -0.020209040492773056, -0.02421882376074791, -0.027389349415898323, 0.021348528563976288], [-0.032758284360170364, -0.0173678919672966, 0.024121226742863655, -0.021410027518868446, 0.029043378308415413, -0.01669514738023281, 0.005650005303323269, 0.004675060510635376, -0.0008760137716308236, 0.022244442254304886, 0.03033292479813099, -0.022298656404018402, 0.020035529509186745, 0.009549911133944988, -0.0006601857021450996, -0.024966523051261902, 0.010594223625957966, 0.02592276781797409, -0.030654972419142723, -0.03298407420516014, -0.03511014208197594, 0.008252186700701714, -0.010261952877044678, -0.011093842796981335, 0.03325565904378891, -0.009109480306506157, -0.022680265828967094, 0.0032125457655638456, -0.01960219256579876, -0.010464085265994072, 0.018865326419472694, 0.008242636919021606, -0.024502627551555634, 0.034009478986263275, 0.024175046011805534, -0.024329831823706627, 0.015577217563986778, 0.014702809043228626, -0.02559225633740425, -0.025057144463062286, -0.02952713333070278, 0.01595447026193142, 0.006269008386880159, 0.015137150883674622, -0.015643859282135963, 0.02689320594072342, 0.004592716693878174, -0.028471220284700394, -0.00896655023097992, 0.01824069954454899, 0.007863836362957954, -0.005457937251776457, -0.024952029809355736, -0.022216729819774628, 0.03080473281443119, -0.020458422601222992, 0.025308657437562943, -0.01195413339883089, 0.00036230377736501396, -0.03477121517062187, -0.011598301120102406, 0.030121559277176857, -0.032038331031799316, 0.018009645864367485, -0.0300033837556839, 0.005284037906676531, -0.032282065600156784, -0.02815021574497223, -0.028686730191111565, -0.01221699733287096, 0.005047358572483063, -0.02598845586180687, 0.009246892295777798, 0.021694310009479523, 0.029281314462423325, 0.031764209270477295, 0.023623650893568993, -0.010437632910907269, -0.0032367445528507233, 0.03163222596049309, 0.017784852534532547, -0.00946093164384365, 0.026964252814650536, -0.031211603432893753, 0.030566714704036713, 0.01998235657811165, -0.026188034564256668, -0.02911745198071003, 0.027948519214987755, 0.03526397794485092, 0.002955470932647586, -0.014575180597603321, 0.019282229244709015, 0.0154290571808815, -0.0049004522152245045, 0.02860960178077221, 0.023273354396224022, 0.009224711917340755, 0.018896494060754776, -0.033083658665418625, -0.016360677778720856, 0.004261129070073366, 0.009786871261894703, -0.005102987866848707, 0.013581815175712109, 0.011030144058167934, -0.0328994020819664, 0.0113321328535676, -0.002861705841496587, -0.024554891511797905, 0.0012137601152062416, -0.008783545345067978, -0.018965713679790497, -0.03253887593746185, 0.029887381941080093, -0.02166828140616417, 0.004830875433981419, 0.028679585084319115, -0.0046325502917170525, -0.024070624262094498, -0.034904301166534424, 0.005482254084199667, -0.018246347084641457, 0.0024271735455840826, 0.011320383287966251, -0.010207672603428364, 0.024246225133538246, -0.004587230738252401, -0.014165988191962242, -0.02355540730059147, 0.010718585923314095, -0.02235444448888302, 0.00751129724085331, -0.00467634154483676, 0.024287160485982895, -0.018144728615880013, -0.01918072998523712, -0.007108641322702169, -0.021791838109493256, 0.013623381964862347, -0.013082113116979599, 0.014657974243164062, 0.020743470638990402, 0.020885776728391647, -0.00648216437548399, 0.019618842750787735, -0.018883109092712402, -0.036145951598882675, -0.004124917089939117, -0.026551244780421257, -0.02809656783938408, 0.008452831767499447, 0.030014395713806152, -0.014441706240177155, -0.002116770250722766, -0.025945231318473816, 0.006039922125637531, 0.009887654334306717, -0.005965778138488531, 0.02662910893559456, -0.02946782298386097, -0.005906521808356047, -0.021319124847650528, 0.030019035562872887, 0.029644306749105453, 0.03425615653395653, 0.032905347645282745, 0.014155599288642406, -0.02734694816172123, -0.024218512699007988, 0.0085824616253376, -0.031833864748477936, 0.022723600268363953, 0.015714794397354126, 0.00874840933829546, -0.03130989894270897, 0.025714892894029617, -0.003975355066359043, -0.015481822192668915, 0.01830741949379444, 0.0027663754299283028, -0.01596330665051937, 0.00830482691526413, -0.02372508868575096, 0.033232610672712326, 0.031074730679392815, 0.016170943155884743, 0.018621601164340973, -0.036292459815740585, -0.021188264712691307, -0.03552979975938797, -0.019513973966240883, -0.029444122686982155, 0.026434428989887238, 0.019336415454745293, 0.021054187789559364, -0.015849506482481956, 0.027239365503191948, -0.005123115610331297, -0.01080136839300394, 0.018579401075839996, 0.023335130885243416, -0.025919336825609207, 0.03378218412399292, -0.004026140086352825, 0.009264280088245869, -0.03604288399219513, 0.0035539702512323856, -0.017903698608279228, -0.0224346574395895, -0.014882354997098446, 7.092388841556385e-05, -0.009859650395810604, -0.022873342037200928, 0.025606714189052582, 0.010461230762302876, -0.0341128408908844, 0.005936185363680124, 0.007895538583397865, 0.0013440727489069104, 0.008949336595833302, -0.0028190664015710354, 0.01569935493171215, -0.025120552629232407, -0.015221353620290756, 0.026778971776366234, -0.02206544205546379, 0.016996251419186592, 0.03212885931134224, -0.03333931788802147, -0.016210073605179787, 0.030205070972442627, -0.002349394140765071, 0.006969269830733538, 0.005135370418429375, 0.014773253351449966, -0.014471140690147877, 0.004949881695210934, 0.024704119190573692, -0.0027106471825391054, -0.03240014240145683, 0.012393420562148094, -0.009383218362927437, -0.0078096031211316586, 0.01773259788751602, 0.005127331707626581, -0.02201029285788536, -0.0162049550563097, -0.005150085315108299, -0.008652680553495884, -0.00748172402381897, -0.024391433224081993, 0.025882134214043617, 0.018553968518972397, 0.007121942471712828, 0.007262949366122484, 0.002970338799059391, 0.026075895875692368, 0.007674441672861576, 0.0053899274207651615, -0.019512388855218887, 0.012188415043056011, -0.03287737816572189, 0.011872825212776661, -0.030431659892201424, -0.014133797958493233, 0.019417118281126022, -0.020864808931946754, 0.028750430792570114, -0.019969094544649124, 0.03329204022884369, 0.010490793734788895, -0.016344957053661346, 0.021200140938162804, -0.03165554627776146, -0.022217819467186928, -0.022118885070085526, 0.004850195255130529, 0.0035773972049355507, -0.030697070062160492, 0.03447283059358597, -1.806547857086116e-06, -0.01899723894894123, -0.0002970682398881763, -0.015947535634040833, 0.009657015092670918, 0.013097741641104221, -0.009659378789365292, 0.002807342680171132, 0.022029999643564224, -0.022210508584976196, -0.007217944599688053, -0.004815240390598774, -0.02336130663752556, 0.0031057465821504593, 0.0012967298971489072, -0.02914409153163433, 0.006438644602894783, 0.0335647352039814, 0.01847490854561329, -0.01981985569000244, 0.032874301075935364, -0.024095389991998672, -0.017777252942323685, 0.015979930758476257, 0.028526758775115013, 0.03413575515151024, 0.03076585941016674, -0.01965588703751564, 0.00820131041109562, -0.022359900176525116, -0.0005870289169251919, 0.028930941596627235, 0.01759214699268341, -0.03250066190958023, -0.014686433598399162, -0.029209598898887634, 0.017752423882484436, -0.004030968993902206, -0.026065390557050705, -0.011593038216233253, 0.011518980376422405, 0.002924144733697176, 0.03289813548326492, -0.0013856843579560518, 0.010521268472075462, -0.011122536845505238, 0.004152613691985607, 0.001730521791614592, 0.03122093714773655, 0.015485460869967937, -0.019989339634776115, -0.031521085649728775, -0.03389279916882515, -0.01292919460684061, 0.004630140960216522, 0.03360572084784508, -0.0034864756744354963, 0.014014681801199913, 0.017985112965106964, -0.027302080765366554, -0.02922523394227028, 0.014030965976417065, 0.01736724004149437, -0.01569569855928421, 0.005908533465117216, -0.03513295575976372, 0.0002958945697173476, 0.008394324220716953, -0.0005637555732391775, -0.006402121856808662, 0.01413355115801096, -0.010541855357587337, 0.026171760633587837, -0.03044133633375168, -0.01988516002893448, -0.029025224968791008, -0.031639277935028076, 0.02697877027094364, -0.008477143943309784, -0.0278363935649395, 0.007483683992177248, -0.02701490931212902, 0.001859156764112413, 0.01698322966694832, -0.007536423858255148, 0.01839585416018963, 0.007409472484141588, -0.028484344482421875, 0.007365534547716379, 0.023551305755972862, -0.007561228703707457, 0.003974210470914841, 0.004569181241095066, 0.002701651770621538, 0.008369934745132923, -0.035584840923547745, 0.025830689817667007, 0.014665104448795319, 0.0035441359505057335, 0.005961775779724121, -0.02854657918214798, -0.009708867408335209, -0.000879089639056474, 0.009162488393485546, -0.018939850851893425, 0.004292874131351709, -0.010711438953876495, 0.026228321716189384, -0.03057233802974224, 0.0037642447277903557, 0.024205917492508888, -0.027733322232961655, -0.0010131807066500187, 0.016528835520148277, 0.014482460916042328, 0.004381011240184307, 0.014799922704696655, -0.02436290681362152, 0.030126448720693588, 0.0010627817828208208, 0.02281195856630802, 0.007070755586028099, -0.005114480387419462, 0.013952981680631638, 0.03282441198825836, 0.03434164077043533, -0.030901752412319183, 0.0018325457349419594, -0.025760162621736526, 0.021010739728808403, 0.02579120732843876, -0.02459380403161049, -0.0014341360656544566, 0.025234319269657135, 0.024004638195037842, -0.026607252657413483, 0.02407718077301979, -0.006289278157055378, -0.030364902690052986, 0.007120450027287006, 0.016643408685922623, 0.021444547921419144, -0.02420921064913273, -0.025670509785413742, -0.023606540635228157, 0.020613200962543488, -0.031196780502796173, -0.00021178372844588012, -0.010889194905757904, 0.014980815351009369, 0.006235795561224222, -0.018640588968992233, 0.0059306020848453045, 0.032468780875205994, 0.005344256293028593, -0.018156714737415314, 0.0007761821034364402, -0.03323671221733093, -0.022976284846663475, -0.006595504004508257, -0.021815069019794464, 0.030705526471138, 0.0073258886113762856, 0.02791004441678524, -0.008023698814213276, -0.004926823079586029, 0.009021562524139881, -0.01061396487057209, -0.012164054438471794, -0.03500368818640709, 0.026989903301000595, 0.03254252299666405, -0.03494454175233841, -0.011572685092687607, -0.026810307055711746, -0.014326008968055248, 0.02720470540225506, 0.018951302394270897, -0.002777664689347148, 0.015438196249306202, 0.010821554809808731, 0.019435346126556396, -0.029060501605272293, 0.010579957626760006, -0.03438093885779381, -0.024329956620931625, -0.013808295130729675, -0.0036552229430526495, -0.03333943709731102, 0.0014172737719491124, 0.00608774833381176, -0.013929737731814384, 0.011701592244207859, 0.031254302710294724, -0.006086559034883976, -0.01902066543698311, -0.03162505850195885, -0.026042496785521507, -0.019649947062134743, -0.026153482496738434, -0.013601415790617466, 0.02009529061615467, 0.011584579013288021, 0.032770074903964996, 0.03589910268783569, -0.012451878748834133, -0.01338263414800167, 0.005365979392081499, -0.02827391028404236, 0.01965160109102726, -0.005901780910789967, -0.02951684407889843, -0.027271753177046776, -0.025465941056609154, 0.009012559428811073, 0.02710994891822338, 0.028227433562278748, -0.009575317613780499, -0.020377254113554955, -0.015615546144545078, -0.02427409216761589, -0.009159274399280548, -0.03223918378353119, 0.019096897915005684, -0.033604253083467484, -0.0221688412129879, 0.02326064556837082, -0.026895862072706223, 0.00885690376162529, 0.027321012690663338, 0.03590117022395134, 0.018867244943976402, -0.008942489512264729, 0.02112104557454586, -0.0005412144819274545, -0.010701509192585945, 0.00046185808605514467, 0.00869422871619463, 0.025015758350491524, 0.01572023518383503, 0.016551515087485313, 0.00436440110206604, -0.0026760620530694723, 0.014750626869499683, 0.008297490887343884, -0.03429671749472618, 0.006119332276284695, -0.015639610588550568, -0.018820220604538918, 0.013855734840035439, 0.007316954433917999, 0.006053225602954626, -0.016927946358919144, 0.01655779965221882, 0.03285062685608864, 0.0041533224284648895, 0.014721845276653767, -0.031198270618915558, 0.021625520661473274, 0.01297465618699789, 0.01652725599706173, 0.015340513549745083, -0.009126373566687107, -0.002082765568047762, 0.03490426763892174, 0.026981521397829056, -0.025014836341142654, 0.028268450871109962, 0.03473367542028427, 0.0037267617881298065, -0.028651010245084763, 0.006846764590591192, -0.007523136679083109, 0.02543841488659382, -0.03400396928191185, 0.009337007999420166, -0.00030941152363084257, 0.0028524622321128845, 0.02457851730287075, 0.0006451692315749824, -0.028738902881741524, 